146 128
52 -0.002960698 -0.032404043 0.010936295 -0.16119407 -0.14438856 -0.12234594 -0.08098012 -0.19945747 -0.13559437 0.16828881 -0.044935867 -0.10062514 0.11817508 -0.023161802 -0.01569047 -0.17299357 -0.02793407 0.007468498 0.07871212 -0.07151669 -0.002537036 -0.029134642 0.118249156 0.056411248 0.034705978 -0.020566912 0.12299281 -0.047520954 0.10414987 0.10411846 0.011607878 -0.10397693 0.06057361 0.08274918 0.11641943 0.08565641 0.008411876 0.17134675 -0.15127109 -0.09725003 -0.27539256 -0.06528901 -0.022461718 -0.037387002 0.074493974 -0.09894789 -0.025669243 0.025092723 -0.20996787 0.032379616 -0.25850475 0.011312093 -0.24807434 0.028838826 0.0307601 0.08949276 0.2083902 -0.19013745 -0.07898987 0.0077741793 -0.12563927 -0.0129228905 -0.035203423 -0.16245964 0.007752567 0.097429775 0.14324571 -0.06845251 -0.040341284 -0.16892742 -0.15733983 0.031000229 -0.21304229 0.07523848 -0.10766103 -0.051848333 -0.04606298 -0.08253153 -0.1399099 -0.0014480758 0.0028996198 0.18240117 0.05351012 0.10615152 -0.021438362 -0.14871961 0.012295543 -0.034467172 0.12394778 -0.018199535 -0.071584664 0.12764317 -0.19626376 -0.13114952 -0.1642015 -0.015317776 -0.22254771 -0.029350562 -0.05367795 -0.04904529 -0.033421677 -0.10216624 -0.008694372 0.12668264 0.029206078 0.004831059 0.1796381 -0.20256747 -0.055558145 -0.0670316 -0.10784048 -0.037731 0.16909747 -0.21007724 -0.08706082 0.26217404 -0.14170209 0.15081884 0.107545294 -0.037238486 -0.102996826 0.07326039 -0.07021233 -0.05205657 -0.19800176 -0.1955904 -0.068793505 0.17472343
68 0.16410203 -0.060304176 -0.25993773 -0.12834084 0.030514939 -0.116421536 0.036793962 -0.5198411 -0.14380974 0.15769687 0.01470768 -0.1593925 -0.043210134 -0.14218585 -0.077359 -0.289981 -0.06860711 -0.04204475 0.0666541 0.030642534 0.021234602 -0.07326751 0.039608955 0.03589581 0.10185199 0.004005561 0.11052959 0.081926405 0.021657133 0.13666706 0.020454613 -0.044604916 0.008330393 0.10362527 0.03465346 0.09228167 -0.04832361 0.14988393 -0.124295674 -0.12650129 -0.2314085 0.06038237 -0.07955613 -0.062447984 0.025063377 -0.08690481 -0.034826893 0.1068612 -0.25996536 0.03742406 -0.20813356 0.097681925 -0.14574085 -0.09852284 0.19609103 0.08892662 0.05199692 -0.17375901 0.06454457 0.094269305 -0.1232286 -0.072740994 0.048335824 -0.1252228 -0.01276038 0.012708781 0.01069228 0.06569986 -0.0008664534 -0.18545942 -0.016491119 -0.039977707 -0.15394472 0.0691349 -0.08912981 -0.009597499 -0.0067666755 0.011891648 -0.07008428 -0.072355755 -0.05659818 0.14818339 0.04699375 -0.021159267 -0.070052885 -0.119005434 -0.049227938 0.052705225 0.25216043 -0.060569257 -0.09554407 0.27819818 -0.13563278 -0.12997118 -0.07346536 -0.020059032 -0.1636442 -0.1671087 -0.16315688 0.026195578 -0.08373371 -0.072405584 -0.058129974 0.12277941 0.04291154 0.0065796697 0.1736182 -0.1741246 0.063703135 -0.0038660609 -0.027455753 -0.10774626 0.120087594 -0.25625426 -0.092605166 0.22093488 -0.12231697 0.08455757 0.11007288 0.06024615 -0.10784997 0.10006379 -0.14999582 0.12685812 -0.008913227 -0.13587706 -0.18781321 0.096569866
57 0.18537307 -0.061071865 -0.10173698 -0.096256465 0.10657488 -0.06529167 -0.058767017 -0.45973805 -0.10043266 0.029760085 -0.044408742 -0.24636678 -0.07852175 -0.03636931 0.10094607 -0.19360048 0.15060753 -0.055102985 0.13182071 0.053089544 0.0053197453 0.15993668 0.1189958 0.14743088 -0.051381472 -0.054291103 0.07223208 -0.048667546 0.024694635 0.16827948 0.03753965 -0.006191047 -0.068442106 0.20571904 0.073554754 0.06878311 0.013291993 0.15378329 0.109744914 0.0109738605 -0.050716203 0.09382988 0.030764865 0.0555605 0.04047105 -0.063943066 -0.09367118 0.19359095 -0.18195355 0.0025034423 -0.31554797 0.0070079095 -0.24798934 0.02563913 0.05435524 0.07512239 0.18619508 0.013799092 0.003806885 0.038616955 -0.06848138 -0.06637242 -0.08334034 -0.13560885 -0.04714456 0.010122165 0.13707809 -0.02943539 0.11585827 -0.25881815 0.038057484 -0.0915628 -0.08908752 -0.022840636 0.0056900913 -0.15963647 -0.017152287 -0.099248596 -0.13512668 0.07344478 0.07223923 -0.03150245 0.02175082 0.018826572 -0.01323852 -0.06128058 -0.018437153 -0.06772906 0.05091452 -0.04350397 -0.077401854 0.15192196 -0.09739796 -0.09531025 -0.19795693 -0.061832864 -0.19396022 -0.026551975 0.10300056 0.055921797 -0.05770886 0.033022646 0.04576213 0.1763241 0.064156786 0.09022093 0.02877083 -0.12058417 0.10814321 -0.026841879 0.01525367 0.002410226 0.24401848 -0.12266388 -0.20191248 0.13927518 -0.18985267 0.15953133 0.21575415 -0.030857379 -0.096798316 0.1413666 -0.09123305 0.06319898 -0.08521593 -0.08784552 -0.1453606 0.15517643
98 0.17298116 0.044429366 -0.075820416 0.031341698 0.13663906 -0.17004134 -0.08091092 -0.30411077 0.0027960557 0.12542294 0.058657426 -0.0957481 -0.0739932 -0.1365658 0.0029389074 -0.16071193 0.00285609 -0.04349222 0.06436414 -0.015199742 0.005012485 -0.06693674 0.14021087 0.12435832 0.06632544 -0.089582466 0.1232905 0.025896313 0.015426273 0.04980276 0.010571697 -0.0090495795 -0.06511174 0.15674013 0.025157047 0.10103671 0.081234165 0.07553775 -0.030009903 -0.09147254 -0.12670141 0.055214696 -0.06762961 0.049887102 -0.029515076 0.010202426 0.09553412 0.23865996 -0.21862543 -0.040685114 -0.30609754 0.05820507 -0.28068268 -0.053652458 0.04380334 0.12607883 0.18400937 -0.06539003 0.17448464 0.1293752 -0.17620967 0.06679877 0.0010329792 -0.114068165 -0.022078019 -0.042583242 0.012784888 0.10334044 0.08574457 -0.14199308 -0.065256365 -0.111018665 -0.18377769 -0.061745282 -0.038598977 -0.08488933 0.04044275 0.016359627 -0.2620401 0.00024617437 0.07357757 0.036730323 0.05482207 0.09769419 -0.07504036 -0.09466285 -0.0061477344 0.006883129 0.053959116 -0.02673538 -0.1065795 0.16622078 -0.12215594 -0.15719411 -0.2569442 -0.013811289 -0.15221454 -0.024197469 -0.095815815 -0.07108336 -0.08942141 0.029553443 -0.05232171 0.12510006 -0.028289273 -0.015617551 0.07659015 -0.16643175 0.15009207 -0.023793126 0.012288491 -0.017304176 0.27245358 -0.24957281 -0.25814664 0.25690642 -0.19642207 0.12513423 0.14170586 0.126093 -0.20045115 0.16550049 -0.07552302 0.14044999 -0.07487629 -0.13885784 -0.16583623 0.16116491
43 0.091660775 0.0006363713 -0.10160155 -0.03809468 -0.044277538 0.04923719 -0.120931044 -0.10734529 -0.014578184 -0.032550372 -0.025631802 -0.00934183 0.017027266 -0.004509357 0.011542795 -0.012553173 0.28413206 0.028711047 0.13147667 -0.04610381 -0.028243324 0.15855558 0.1803885 0.15643309 0.048969716 -0.017766451 0.09026896 0.003607728 -0.14137577 0.18974051 0.095989086 0.07136708 -0.04917003 0.2709528 0.01714843 0.10410206 0.0013814757 0.11509385 0.026395373 -0.0009854775 0.011307358 -0.05236192 0.03368238 0.044291083 0.077220045 0.12522848 -0.12527184 0.059688117 -0.0581057 -0.031796176 -0.35195273 -0.0061934 -0.1184338 0.098488845 -0.03197395 0.05062366 0.12202017 -0.033065256 0.09419395 -0.11275677 -0.032859344 0.05154365 -0.09742594 -0.41341448 -0.037374564 0.1947863 0.11306111 0.028420914 0.101428814 -0.2974632 -0.078984626 -0.09107588 -0.3210733 0.010720577 -0.02285185 -0.06434648 0.07862943 -0.19734266 -0.19764979 0.0068677687 -0.024538672 0.034004595 0.05009342 -0.010435989 0.028328123 0.04971156 0.05780278 -0.16305254 0.054293174 0.08228719 -0.011492925 0.14362377 -0.17237099 0.14617735 -0.08991915 -0.04895153 -0.25643957 -0.05687024 -0.011340385 0.15638186 -0.02676231 -0.037079435 0.14144957 0.15553921 0.10581161 0.0387022 0.09111532 -0.07551432 0.0068955156 0.014732488 -0.049434245 -0.13234772 0.32451212 -0.1794584 -0.117817976 0.16413105 -0.24628931 0.011547578 0.22141527 0.0654553 -0.21409301 0.17487657 -0.0831764 0.07892225 -0.02780597 -0.044132512 -0.047924068 0.063004225
106 0.19554894 -0.02170847 -0.118036635 0.011785179 0.15660438 -0.18554601 -0.045263812 -0.17624775 -0.06461431 0.08603777 -0.04279954 -0.0938456 -0.064473465 -0.049035132 0.08232593 0.011790209 0.11839587 -0.12060137 0.1915336 -0.03657984 0.053900328 -0.07031003 0.16852431 0.10735788 0.047002766 -0.07387531 0.06941261 -0.01720301 -0.023430228 0.050870296 0.014218616 0.036142875 0.048732042 0.054785494 0.0443687 0.033502076 0.18912804 -0.00804677 -0.08289686 -0.20924008 -0.18405066 0.17870224 -0.195612 0.10957103 0.090317614 -0.10276045 -0.09360224 0.1603535 -0.13003582 -0.07344966 -0.22809584 0.060710326 -0.19445007 -0.0017852949 -0.015580478 0.022689946 0.0819274 -0.14771533 0.004936706 0.13170788 -0.06387811 -0.068642326 -0.17019382 0.054198805 -0.12272676 -0.12299896 0.017619928 0.06577881 0.07837226 -0.2659369 0.09281253 0.039916936 -0.083667845 -0.07143905 -0.12469536 -0.12850216 0.10492273 -0.11023322 -0.2940233 -0.08893747 0.028306348 -0.12437047 -0.16665842 0.1380638 0.13013344 -0.08416425 -0.05450054 -0.03632604 0.03064906 -0.053198323 -0.31067437 0.24269733 -0.18745714 -0.13716315 -0.26997957 -0.14378174 -0.29548922 -0.13761395 -0.121963434 -0.14270765 -0.072590336 0.1401386 -0.20573327 0.11811998 -0.05309899 0.021572508 0.057158418 -0.13461009 0.24910465 -0.10403316 -0.07365514 -0.036516167 0.24112895 -0.15494342 -0.2633964 0.17903419 -0.10869249 0.1877853 0.07427597 0.05444786 -0.28305393 0.2092597 -0.057955947 -0.042064607 -0.15968825 -0.16282062 -0.2814363 0.11884584
97 0.07007377 0.045087054 -0.07922211 -0.016277246 0.01909308 0.18231684 -0.09358726 -0.20507373 0.108729504 -0.1514504 -0.07507731 -0.12185231 0.021176662 0.026173063 -0.1073325 -0.2757541 -0.06617557 -0.036911737 0.048018668 0.06154946 -0.07108537 0.056584332 -0.044969317 0.1441865 -0.039815836 0.022876764 0.19375293 -0.20988096 -0.16971736 0.20400001 0.051636077 0.11646772 -0.16664618 0.31945857 -0.16707298 0.23874094 -0.02989285 0.35589457 0.15957479 -0.005898939 -0.08789221 0.1171437 0.22745718 0.10387118 -0.18605955 -0.0030365551 0.13244934 0.13707936 -0.13683116 0.09869598 -0.03514317 -0.029542107 -0.082912035 0.20488022 -0.067533046 -0.0485148 0.21083336 -0.026517266 0.07820096 -0.05185154 0.13426667 -0.02248623 -0.031150697 -0.2997665 0.062323865 0.08844068 0.16559397 0.06965699 0.043867014 -0.25884065 0.2559453 0.03989251 -0.23508492 0.17783532 0.18472874 0.11863707 0.21539953 -0.10821848 -0.06722734 -0.015113017 0.020905089 0.033822007 0.11884847 -0.17904904 -0.018672006 0.09670344 -0.10572377 -0.1142356 -0.06651397 0.022117881 -0.22074826 0.14580548 -0.1268829 0.019243838 -0.13169995 -0.08915217 -0.34354523 -0.065396614 -0.06123003 0.03612412 0.035952475 0.09458439 0.113112785 -0.016259836 0.12927069 0.1145858 -0.04352213 -0.001967074 -0.08977844 -0.017935451 0.0675544 -0.10849404 0.45761263 -0.32042572 0.05023052 0.06471438 -0.33902082 0.07121111 0.18377945 -0.09339009 0.040605504 0.25974274 0.033360384 -0.06824781 -0.061668172 -0.21515246 -0.35252446 0.11252746
55 0.17286894 -0.039738983 -0.23212531 -0.0532794 0.046233565 -0.07899448 -0.018041477 -0.38127917 0.02687093 -0.001666557 -0.040038552 -0.21935958 -0.19605175 -0.13080072 -0.09878445 -0.20359734 0.19517645 0.060602214 0.1771524 0.06000179 -0.11490212 0.046240095 0.2806077 0.11895913 0.09664133 -0.13717936 0.24928719 -0.0738168 -0.06508525 0.11722349 0.16014096 -0.083680645 -0.050052177 0.23056026 -0.115538724 0.086454585 -0.024330745 0.084707126 -0.015147869 -0.03822046 -0.11238904 -0.0019743843 0.0045960746 -0.06520018 0.0007482861 0.02574379 0.050661296 0.20053066 -0.161479 -0.19912536 -0.1747427 -0.013202294 -0.06735999 -0.08054742 0.00028115613 0.14172456 0.15256077 -0.167413 0.17855738 0.038619693 0.08897794 0.2171583 0.0052417195 -0.16784607 -0.11145595 -0.019171683 -0.061560053 0.15857354 0.04658031 -0.16922973 0.11286946 -0.022373721 -0.18828046 0.096401274 0.08285103 -0.006435251 0.15161823 -0.057457782 -0.14018728 -0.050800893 0.0013119462 0.0017298097 0.1364715 0.13076505 -0.09938368 -0.0853586 -0.036631007 0.060637973 0.08919321 -0.15308051 0.033824928 0.23855157 -0.20160188 -0.07750269 -0.15854366 -0.03814372 -0.08806412 -0.06364807 -0.07680697 0.015224617 -0.1384966 0.00029836656 0.0635139 0.020192515 0.0023728102 0.08587889 0.09872141 -0.06980881 -0.14082378 -0.067396455 -0.00015214067 -0.18689367 0.2633717 -0.3003676 -0.12157525 0.21789812 -0.16550745 0.10358906 0.21386038 0.070836395 -0.12590459 0.046171412 -0.06841533 0.19591165 0.08306236 -0.1388136 -0.20046532 0.09129205
2 0.26704097 -0.017555835 -0.3440047 -0.20024152 0.031346735 -0.05711302 0.003927637 -0.79863185 -0.29969794 0.14657074 0.02092958 -0.28477657 -0.1468878 -0.058176227 0.036237255 -0.3779449 0.103126824 -0.16761808 0.23143648 0.078597054 0.081934005 0.036947727 0.10020817 -0.1300663 0.053481568 0.02941015 0.120218724 -0.054078452 -0.079838336 0.08253178 0.001111179 0.097711295 -0.05395137 0.18305825 -0.024209408 0.048808258 -0.07174064 0.08857391 -0.025352763 -0.012458793 -0.07222204 0.18188998 -0.038901344 0.010203222 0.009771764 -0.045719944 0.03781874 0.18402311 -0.10344004 0.0021122808 -0.16107534 0.017385036 -0.2320435 -0.01758284 -0.03865911 0.029997734 0.028080178 -0.028237816 0.19945309 0.0920467 0.00480419 -0.055290904 -0.1318936 -0.23104613 -0.054886058 -0.012908071 0.0096228365 0.0786669 -0.0660117 -0.16451842 0.023639407 -0.047778625 -0.2203006 0.07335516 -0.053226605 0.03908407 0.08242329 -0.15618107 -0.11861844 -0.0077523063 -0.03205436 0.10950718 0.11038676 0.08517941 -0.13489006 -0.0051815235 0.006418922 -0.11064156 0.010030412 -0.041644808 -0.2045931 0.102738746 -0.11429889 -0.10364021 -0.028863542 -0.073882475 -0.04167753 -0.0752464 -0.04299481 -0.021106169 0.0645362 0.03382484 -0.10698084 0.14523311 -0.0079343775 -0.010865789 -0.00041833165 -0.03741192 -0.08221996 -0.042465482 -0.007860997 -0.007498008 0.17210624 -0.20939948 -0.06829911 0.19691789 -0.122738086 0.014252057 0.11486849 0.01993072 0.0007048742 0.22517486 0.03854575 0.08755568 0.049609214 -0.13374062 -0.09366727 -0.031503297
35 0.13365339 0.12885156 -0.061210297 -0.062906735 0.17958601 -0.11007455 0.013506927 -0.5818289 -0.15110551 0.10608187 -0.06670648 -0.23008494 -0.23870616 -0.12219964 0.133317 -0.21185963 0.14942002 -0.12234717 0.23586367 0.07171896 -0.095360786 -0.0016082344 0.19509062 0.09818087 0.14462145 -0.043428678 0.110343926 -0.14143774 -0.08951184 0.19983973 0.08205669 0.04729475 0.07743394 0.20094049 -0.03142326 0.034945514 0.059966933 0.24361803 -0.060223248 -0.06759237 -0.337838 0.08857424 0.006427703 0.08534522 0.069232196 -0.079629846 -0.030788247 0.22911924 -0.14066833 -0.02216198 -0.14175741 -0.040053617 -0.24547817 0.11197602 0.04575317 0.09666963 0.06957842 -0.12251712 0.13639851 0.17932709 0.07845319 -0.090357624 -0.0737366 -0.03598143 -0.20824085 -0.16628924 0.060281117 0.017948715 0.0015764982 -0.22252387 0.102164894 0.006427743 -0.17022665 -0.028160762 0.040132772 -0.14463031 -0.011967693 -0.0852217 -0.08669469 -0.16810755 -0.030251442 0.03733652 0.07499176 0.1204526 -0.0059107137 -0.18344377 -0.12742727 0.04923936 0.1256102 -0.07443308 -0.09797649 0.23239337 -0.089003816 -0.1742019 -0.08072635 -0.16214952 -0.19219445 -0.10610171 0.10863988 -0.13013113 -0.055087086 0.14327835 -0.10210903 0.058885332 0.032382403 0.004352842 0.123734556 -0.094383866 0.12869707 -0.11556312 -0.03745205 -0.10495338 0.056171287 -0.1539762 -0.1100188 0.04753129 -0.07461729 0.043159228 0.082035616 -0.07678218 -0.11393751 0.2605489 -0.11906701 0.11150696 -0.04688503 -0.024799794 -0.2521518 0.05195017
44 0.052337095 0.089161575 -0.10174618 0.039578844 0.2329529 -0.043814495 -0.0986981 -0.19753468 -0.1704378 0.00922435 0.060938705 -0.13646466 0.0053009135 0.02219811 0.14893946 -0.02677857 0.13896626 -0.07479788 0.16243108 0.064302415 0.114296906 0.006558781 0.09750952 0.07827449 0.0029389178 0.084703416 -0.0562536 0.09779625 -0.10358026 0.22238222 0.102071315 0.112127185 -0.031593308 0.22417273 -0.03503329 0.041323166 0.105553575 0.08647431 -0.047801122 -0.15328416 -0.11011026 0.081310876 0.043172948 -0.09131253 -0.04887707 -0.041213725 -0.03687262 0.12069409 -0.21089931 -0.049385488 -0.3902311 0.036587846 -0.48446965 0.03445324 -0.11167515 0.039692078 0.044130284 -0.034449905 0.19827062 0.0824851 -0.23761496 -0.075622745 -0.15137751 -0.30092204 -0.12079899 0.09463061 0.1486323 0.05815581 0.044614058 -0.14816698 -0.16850029 0.011255915 -0.19023013 0.00075938215 0.039622895 0.012534079 0.07506935 -0.23834826 -0.122985445 -0.021073584 -0.035374094 0.09275067 0.0880013 0.059082225 -0.1238874 -0.0803212 0.06725999 -0.115293644 0.14740647 0.049738713 -0.14911021 0.055239428 -0.15613577 -0.022177354 -0.16567183 -0.22887799 -0.12400419 -0.23407476 -0.0951577 0.071314074 0.030837037 0.069980815 -0.0019157799 0.15161777 -0.015579973 -0.0061077536 0.12699632 -0.241376 0.10422901 0.0063020913 -0.0045294026 -0.1705905 0.13840966 -0.16893344 -0.113615476 0.2443481 -0.023754342 -0.022548992 0.23301749 0.09674324 -0.20522425 0.1832909 -0.17041731 0.108893074 -0.14288998 -0.03406092 -0.051610988 0.034803625
54 0.26698548 -0.24547161 -0.36544815 -0.0884412 -0.04991639 -0.15456337 -0.081556186 -0.7331622 -0.13170674 0.2251898 -0.035425153 -0.28951338 0.0013666893 -0.10291903 -0.040039845 -0.4024181 0.050771464 0.013354513 0.109807946 0.0820536 0.067416236 0.0966395 0.056156497 0.046045545 0.004209485 -0.010622281 0.2123581 -0.021095207 0.07771065 0.053743646 -0.013223382 -0.018170917 -0.045577615 0.1760589 0.03673409 0.016206607 -0.22496353 -0.10948751 0.028378135 0.025268663 -0.035284314 -0.033910498 0.10988327 0.02747618 -0.03720205 0.021601433 -0.0761348 0.015383734 -0.12814923 -0.011442378 -0.20884286 -0.0120208785 -0.1278733 -0.12278397 0.011821926 -0.0025787689 0.13870895 0.024223251 0.0734017 -0.09362212 -0.064001925 0.06466419 -0.06269754 -0.15424266 0.036659185 0.041641586 0.07166361 0.1090288 -0.08179652 -0.22785467 -0.091767564 -0.105263546 -0.10916062 0.052066524 -0.043559674 0.009679094 0.13906418 -0.11739161 -0.23246819 0.09235688 0.0050085657 -0.021553243 0.09284088 0.043716233 -0.056229174 -0.035972685 0.054874025 -0.024353556 -0.017679399 -0.0033642333 -0.17666706 0.10658652 -0.21607052 -0.00044885388 -0.14445557 -0.013913119 -0.100715846 -0.08853407 -0.090044565 -0.012085366 -0.07762923 -0.12482946 0.104604214 0.075310856 0.027359806 -0.048214965 0.048573453 -0.112176396 -0.09827022 0.046436414 0.07935977 -0.19153467 0.25378174 -0.20058334 -0.16014045 0.2255955 -0.17683451 0.13974763 0.2915778 0.08243967 -0.031512693 -0.014021796 -0.097334586 0.03606293 -0.059618153 -0.27536124 -0.08309539 0.061218876
8 0.2274399 -0.08154434 -0.12353545 -0.117479995 -0.020253943 -0.019520216 0.08708026 -0.20663166 -0.07764172 -0.019444617 0.05374193 -0.07973704 -0.21715567 -0.09728637 -0.033788953 -0.013488505 0.046388038 -0.121873185 0.29250848 0.039311215 0.1998687 -0.1266748 0.036155187 0.06666246 -0.00927341 0.0039397473 0.04082172 -0.15631028 -0.10055013 0.05884526 0.06178101 0.20454538 0.17830688 0.09348247 0.08191842 0.18329857 0.32875082 0.2919566 -0.07715844 -0.14936937 -0.29209402 0.098790795 -0.100939594 0.16501805 0.16934904 0.1053622 0.026508031 0.20298336 -0.18517925 0.08833691 -0.3452547 0.20751585 -0.23550658 0.07928586 -0.02076241 -0.069276065 -0.042069167 -0.050422534 0.11430833 0.13386416 0.08736115 -0.23835512 -0.287863 -0.30347937 -0.312528 -0.22348213 0.013394726 -0.02416069 -0.002964401 -0.2926885 0.29403865 0.12962787 -0.03214254 0.08832282 -0.036485586 0.0016089993 0.0650217 -0.1409746 -0.10805554 -0.1708361 -0.009948456 0.0585835 -0.12152037 0.014730782 0.039064422 0.07266109 -0.08183357 -0.25822422 0.029799642 -0.025157543 -0.17848602 0.23893052 -0.037306223 -0.08473875 -0.07482073 -0.04635293 -0.13527402 -0.009784958 0.018222647 -0.028301638 0.1512067 -0.044855233 -0.09664215 0.06204576 0.04409511 0.035627834 -0.05124679 0.057084188 0.087080084 -0.10239705 0.039000444 -0.008950681 0.21871834 -0.17013654 -0.19245747 0.12197823 -0.19281927 -0.0030081389 0.028132949 0.057084203 -0.21312559 0.2010334 0.009080379 -0.13515618 -0.08759118 0.09386135 -0.17645682 -0.01459489
38 0.24295798 0.035778716 -0.2131544 -0.04477256 0.10032858 -0.1565126 0.003959661 -0.71327573 -0.2605527 0.1150408 0.037653435 -0.32820788 -0.053505447 0.01681582 0.06767577 -0.36992076 0.20534204 -0.14450365 0.11847212 -0.05847409 -0.0050205467 0.02744863 0.2235575 0.09785682 0.069614425 -0.10214811 -0.13305537 0.06522557 -0.18004113 0.09952573 0.048688076 0.14610246 0.12837158 0.11527746 0.033264924 0.012595369 0.19215356 0.056756247 -0.18921292 -0.17810455 -0.23057474 0.06708297 0.047347907 0.14033589 -0.00018410433 -0.07720726 -0.022964714 0.18843372 -0.24181111 0.018099021 -0.19588709 -0.07267991 -0.42955607 0.18476121 0.0732822 0.1381644 0.23218618 -0.17444135 0.15368018 0.17671357 -0.037075266 -0.00059441605 0.0796894 -0.025429329 -0.04799167 -0.08743188 0.13746609 0.040286377 0.023493297 -0.09881039 -0.052916054 0.07727893 -0.15947598 -0.0045969984 0.10607214 -0.031031812 0.055942442 -0.15124154 -0.023840658 -0.13041583 -0.038449913 0.10044318 -0.09045654 -0.0555561 0.078257255 -0.14036904 0.001714902 -0.105262384 0.028722933 -0.025759112 -0.30053672 0.051065274 -0.20741735 -0.11732637 -0.11818716 -0.17523937 -0.15257712 -0.03970104 -0.078213446 -0.05677603 -0.07405538 0.20142779 -0.06998977 -0.013162938 -0.05007841 0.09422707 0.09908674 -0.0913799 0.044652097 -0.0010328426 -0.02491275 -0.029234963 0.09252873 0.0068049356 -0.028467663 0.1375364 0.04597175 0.0389136 0.05774507 -0.00520889 -0.20254758 0.255616 -0.11292413 0.0901404 -0.13845089 -0.03984393 -0.15966433 0.003246291
29 0.1702802 -0.31602892 -0.52562857 -0.012388129 -0.26905274 0.28199193 0.20482072 -0.44390088 -0.0029341064 -0.0617938 0.047267154 0.1805206 -0.46230796 -0.31566817 -0.13603358 -0.012587869 -0.019567426 0.19726276 0.039499365 -0.114664115 -0.3411167 -0.17541581 -0.00619708 0.4250422 -0.18191889 -0.259157 0.3113348 -0.23980163 -0.21400805 -0.003970379 0.45439824 0.035112873 0.051952634 0.14144425 -0.3615314 0.10507702 0.12933959 0.13055262 -0.060554225 -0.21967965 -0.19395868 -0.14669503 -0.063239135 -0.15549916 -0.065963656 0.19663839 0.29635787 0.27879864 0.0841592 -0.18623266 -0.49329093 -0.080819465 -0.20562504 0.090006 -0.38941053 -0.18903923 -0.029963262 -0.28920916 0.09004152 -0.16838758 -0.23178375 0.23188502 -0.15408394 -0.3511184 -0.00038576414 0.26236382 -0.20468016 -0.23401308 0.30273473 -0.15195054 0.11980498 0.0695551 -0.10252197 0.025056526 0.19632083 0.08354984 0.12100173 -0.07592732 -0.041436035 -0.16702649 0.11424382 0.1503761 0.0811131 -0.021533247 0.23653995 -0.16946164 0.07751764 0.07571749 -0.05541976 -0.1524231 0.30001158 0.26867408 -0.00404193 0.06856232 -0.05695825 -0.11111863 -0.29845557 -0.17870976 -0.008832885 0.13217907 0.11406078 0.20807666 0.10629693 -0.12602058 0.09596195 0.12043432 -0.11122134 0.14164872 -0.1633567 0.17658803 0.16565196 -0.090499446 0.21001098 -0.24778625 0.18508355 -0.029646846 -0.42202744 0.11262762 0.17174366 -0.013315005 -0.2605284 -0.08692721 0.06890524 -0.13029255 -0.037651118 -0.049382094 -0.17898302 0.10256191
27 0.1510725 -0.22951432 -0.4642783 -0.014321453 -0.1417106 0.15168037 0.15167318 -0.33078066 0.041090816 -0.06363576 0.070165515 0.197448 -0.42152873 -0.2987829 -0.10449837 -0.024752488 -0.0060797213 0.19502065 0.054247964 -0.14371935 -0.29639715 -0.17016244 0.037611224 0.4061111 -0.10017492 -0.27070647 0.33597732 -0.18052088 -0.15632656 -0.011026523 0.42140588 0.017390147 0.017193625 0.17486678 -0.34157822 0.03242642 0.07710287 0.01934585 -0.10368904 -0.19691926 -0.23783857 -0.10510861 -0.12939079 -0.18721677 -0.06974242 0.17897882 0.26852828 0.28663117 0.06082991 -0.21952248 -0.42632028 -0.065310866 -0.27948052 0.07080905 -0.35455036 -0.18004401 0.0030352313 -0.27785376 0.09768964 -0.12858883 -0.2659922 0.2074042 -0.18580681 -0.370219 0.025417762 0.2534945 -0.22960785 -0.15009858 0.26168182 -0.14893995 0.038953263 0.030230587 -0.1245074 0.00011005044 0.14095603 0.050727982 0.13203894 -0.05915839 -0.09481888 -0.16147758 0.17041835 0.105616055 0.1291703 0.0122434385 0.17997359 -0.15326752 0.10842514 0.11258025 -0.0140534425 -0.17060038 0.30129948 0.23601362 -0.0042398144 0.14599796 -0.05820862 -0.12333232 -0.29558077 -0.2269301 -0.056981888 0.12915005 0.14855693 0.16156287 0.090510294 -0.12378604 0.050273024 0.00848332 -0.066046335 0.08339546 -0.18529086 0.12754188 0.09646265 -0.16647045 0.1377584 -0.25019085 0.08228447 0.00858683 -0.33480525 0.08174979 0.170079 -0.03830268 -0.25101024 -0.12518838 0.06824388 -0.068403885 -0.015224978 -0.07890695 -0.16493028 0.06649464
86 0.44997767 -0.21090266 -0.15110669 0.045283016 -0.011163998 -0.31899095 -0.0079297945 -0.6165494 -0.15993448 0.17759886 -0.08234805 -0.21564797 -0.06821291 -0.07205948 -0.017536016 -0.18335511 0.09449926 -0.13800573 0.09240918 -0.09968034 0.15245213 -0.028419878 0.16566971 0.011304216 0.026593013 -0.080002636 -0.14627215 -0.051733002 -0.017820558 -0.026884424 -0.10390028 0.13075563 0.13542897 0.018152589 0.17518976 0.04037676 0.18079488 0.07253123 -0.06851036 -0.19736737 -0.38307998 0.08917661 -0.10905009 0.27585816 0.06702569 -0.108851895 0.00628331 0.18478021 -0.26253664 0.117630646 -0.2832669 0.07880897 -0.31186852 0.08746081 0.0074957367 -0.030805761 0.19181396 -0.009311059 0.14528753 0.11210239 0.050717335 -0.17733034 -0.17290045 0.023740813 -0.08370323 -0.31479076 0.010058559 -0.024941443 -0.050332386 -0.1861239 0.0728736 0.066314094 -0.0802046 -0.15487345 -0.065246806 -0.054773495 0.059638783 -0.19673438 -0.23649597 -0.11975315 0.06480249 -0.03328803 -0.2347579 0.11470123 0.07128286 -0.072765894 -0.034919392 -0.08446724 -0.15848313 -0.06373852 -0.4467468 0.10736444 -0.1737263 -0.14409822 -0.23877564 -0.07421501 -0.21764883 -0.06274961 0.04513233 -0.12945387 -0.03064587 0.25166515 -0.18096645 -0.00040273677 -0.056236483 -0.045394257 -0.08655449 -0.047426652 0.2319792 -0.06692479 -0.013846924 0.16052473 0.15525779 -0.04374447 -0.33194536 0.19210598 -0.1301462 0.20739545 0.114054605 -0.038649727 -0.31571317 0.155549 -0.016514704 -0.027243651 -0.3289117 -0.21559168 -0.16261272 0.08219484
17 0.09259885 0.042639647 0.082644336 -0.108209506 -0.08615354 0.018440904 0.009758307 -0.38153926 -0.28156173 -0.03066072 -0.19122599 -0.102928996 -0.0899196 0.15192987 -0.086445026 -0.24420917 0.06299632 -0.19547217 0.06768944 0.047008593 0.11458148 0.05350698 0.07702709 -0.0011630048 -0.014915822 0.13597709 0.020676384 -0.06651516 -0.10143836 0.15813285 -0.08305261 0.07495886 0.18645477 0.1783526 0.07261801 0.09278985 0.041451886 0.27669337 0.10365177 -0.11213098 -0.21156105 0.009651508 0.09015208 -0.13774297 -0.050148197 -0.14949802 -0.108018495 0.09471292 -0.31436607 0.2702494 -0.36219782 0.016970348 -0.29288617 0.0054636095 0.008035842 0.15126272 0.18857047 -0.08211556 0.16281436 0.032961875 -0.08264019 -0.26107034 -0.041351315 -0.19244708 -0.32094938 -0.07372742 0.17413999 0.041273057 0.051167775 -0.3753646 0.13055088 0.16365087 -0.068427816 0.08715155 0.07982499 0.013630555 0.1461331 -0.30356628 -0.10768067 -0.12718688 -0.029460974 0.0036708855 -0.10361903 -0.1068693 0.06877674 -0.12141457 -0.1635018 -0.14440134 0.13098311 -0.09977285 -0.28357172 0.34065953 -0.18620357 -5.586937e-05 -0.04850847 -0.19264013 -0.15303677 -0.1317435 0.011658599 -0.21630968 0.15203431 -0.10475733 -0.055696145 0.19426923 0.05794365 0.008065463 0.14020331 -0.02379392 0.16242348 0.14248647 0.09570701 0.06244142 0.08947816 -0.20041221 -0.27741557 0.0083402265 -0.22381581 -0.059809044 0.09501727 0.06265933 -0.13509941 0.41994053 -0.06415986 -0.12711644 -0.17699277 -0.057837836 -0.22254312 0.022454424
47 0.120580986 0.022448692 -0.25287533 0.07061597 -0.05192329 0.024553949 -0.055809714 -0.25901514 -0.01674319 -0.08891541 -0.04171576 -0.060084324 -0.2050069 -0.1300946 -0.088916846 -0.06836993 0.14876641 0.08417967 0.11103021 -0.048331242 -0.08525667 0.05498635 0.23791917 0.13388987 -0.034884166 -0.13337255 0.088728845 -0.18100254 -0.08007464 0.105428375 0.1716209 -0.0028091413 0.03221634 0.20132256 -0.23309249 0.1034488 -0.08328679 0.07482476 0.11854897 -0.03640559 -0.18550737 -0.03379946 -0.0029696606 -0.044475492 0.059270393 0.09018006 0.09790192 0.16496488 -0.05867031 -0.13906486 -0.2337549 -0.08773615 -0.029006975 -0.038711227 -0.19772963 0.03619814 0.120061964 -0.0730072 0.17488971 -0.10210121 -0.042680327 0.111535884 -0.054876536 -0.20693056 -0.12687366 0.23247826 -0.012448772 -0.051122516 0.05273677 -0.19769642 0.18135898 0.04533628 -0.217756 0.09674007 0.13785931 0.053685207 0.18447147 -0.14894377 -0.2590491 -0.11316897 0.062963314 0.018263977 0.13972075 0.19079123 0.016495895 -0.07819172 -0.0675731 -0.041529816 -0.052200407 -0.09302083 0.08330493 0.26721236 -0.17280246 -0.05303067 -0.01066399 0.036816042 -0.22145513 -0.13262603 -0.023587324 -0.061271247 0.073115185 0.07483552 0.053092346 0.0030403964 0.04325875 0.0888876 -0.056806322 0.06315157 -0.21992902 0.0034051405 -0.0023673011 -0.1598032 0.2331831 -0.26820457 -0.0394298 0.117683984 -0.3281486 0.11158663 0.22069016 -0.04112303 -0.15974642 0.021509297 -0.01767215 0.06506682 0.020636879 -0.11599274 -0.23869492 0.10583362
67 0.07832111 -0.2539926 -0.31933668 0.10988504 -0.22746384 0.1370098 0.08245214 -0.31899762 0.037542384 0.0069655054 0.105510466 0.11179815 -0.11653004 -0.15457949 -0.11680039 -0.12199941 -0.063670084 0.32211167 -0.0491238 -0.08005919 -0.25050098 -0.17227417 0.044445068 0.4010891 -0.019539326 -0.10870098 0.15500818 -0.044936787 -0.051940687 0.0029772946 0.22988158 -0.04290461 0.017570298 0.016454834 -0.20096695 0.043899227 -0.05796093 0.03205555 0.011767757 -0.0904507 -0.16351372 -0.09930272 0.035756886 -0.035899915 -0.04606439 0.116650015 0.2226013 0.17753254 -0.0066840583 -0.20502456 -0.1661002 0.011302574 -0.09694241 -0.11686561 -0.18537179 -0.07347857 0.063448556 -0.17692633 0.2572723 -0.06822921 -0.14643122 0.1340007 0.036224984 -0.1309912 0.095969066 0.06683519 -0.1126348 -0.033148553 0.1479532 -0.18534748 0.1069416 0.101397455 -0.24743907 0.03261965 0.13234141 0.07057953 0.20109427 -0.12664865 -0.13788967 -0.21276909 -0.046694465 0.10930088 0.11262187 -0.02874904 0.07480069 -0.20814809 -0.012703147 0.11051886 -0.007445425 -0.06954711 0.025913592 0.29529995 -0.1395185 -0.07519367 -0.14520808 -0.16806048 -0.4236951 -0.3212953 -0.09144843 -0.05328633 0.08361321 0.116624914 0.017834123 -0.046076372 0.07303513 -0.010339174 -0.10241161 0.12771916 -0.08621232 0.08489635 0.051408276 -0.18195668 0.2320737 -0.1925404 0.08306958 0.0058192424 -0.39649954 0.15536307 0.14568351 -0.08839094 -0.2878183 -0.08941122 0.0906264 0.039869774 0.00072687166 -0.07616005 -0.22068475 0.044645827
78 0.2873794 -0.09649849 -0.2670328 0.16600543 0.11575629 -0.24532208 -0.0051854174 -0.61642283 -0.28048217 0.2440905 -0.017101254 -0.32698023 -0.10023511 -0.0034268964 0.054159604 -0.32681504 0.23564138 -0.050917353 0.14461748 0.011793749 0.17786668 0.11075389 0.16635144 -0.0014633059 -0.080820166 -0.012506836 0.026233545 -0.15290114 -0.023946427 0.13230288 -0.022491291 0.059660856 0.15010433 0.02728259 0.13831666 -0.046810117 0.18377289 0.083472095 -0.08391879 -0.13747106 -0.09937819 -0.07389617 -0.009713459 0.053082094 0.2291848 -0.0630734 0.029306097 0.13746953 -0.29594174 0.014508732 -0.1634896 0.1983158 -0.30791512 -0.08884915 0.20516746 0.10200247 0.09488985 -0.2689591 -0.0865793 0.007892004 -0.04660773 -0.0778298 -0.05010042 0.050258 0.11213113 -0.22822472 0.08593986 0.043947063 -0.06248222 -0.062483717 -0.25145325 -0.0062567014 -0.18526033 -0.026534954 -0.05599385 -0.07041002 -0.067586035 -0.04053689 -0.22235157 -0.19201343 0.047288742 0.0004905724 -0.12177237 -0.1098955 0.008285954 -0.094956025 0.16483681 -0.2892168 0.09345992 0.03568414 -0.17806223 0.12086255 -0.10062222 -0.009178317 -0.2959593 -0.10203047 -0.17310163 -0.031196563 0.09388565 -0.007825663 -0.23945738 0.032015618 0.013856852 0.003201546 -0.03673155 0.104463376 0.14187595 -0.06769787 0.008637427 -0.21183164 -0.056454297 0.046505947 0.3122063 -0.11241903 -0.25323582 0.1272673 -0.13446772 0.16041753 0.15025972 -0.026792552 -0.13862717 0.28359407 -0.024790142 0.04788613 -0.05782335 -0.25817972 -0.09232942 0.037679765
107 0.06612085 -0.06894135 -0.16362941 0.029461058 0.052504387 0.059992198 0.097268544 -0.17605613 -0.120684534 0.018798549 -0.04175907 -0.13525471 -0.1752673 -0.10847393 -0.03697558 -0.062721886 0.036431156 -0.23209897 0.17557466 -0.103874095 0.10077671 -0.1179332 0.24633968 0.03218413 0.01870154 0.063270226 0.10252232 -0.07564671 -0.09248437 0.00063866685 -0.073761605 0.1390248 0.10624375 0.21576013 0.0055431747 0.017384578 0.08077363 0.114677094 -0.08644189 -0.15442085 -0.3230582 0.12492127 -0.16209278 -0.09131399 0.07130005 -0.04922711 -0.006247477 0.1418539 -0.2028719 0.10639161 -0.3182427 -0.06512772 -0.23188725 -0.10613878 0.057456344 0.07311457 0.11508541 -0.17367622 0.16246411 0.20859432 -0.05435536 -0.25681657 -0.17245056 0.008195218 -0.17117493 -0.008437945 -0.0013673196 0.10536401 0.10781486 -0.35057536 0.02916133 0.12408505 -0.15729731 0.0036421968 -0.12423616 0.07627143 0.10270711 -0.16012892 -0.2810977 -0.26303932 -0.07548034 0.031860646 0.010582182 0.3399938 0.017048823 -0.102639236 -0.07366754 -0.08087292 0.21260655 -0.110543914 -0.17791125 0.2620111 -0.078742445 -0.079012066 -0.11358379 -0.15159692 -0.08959786 -0.19319348 -0.17187726 -0.16339722 0.063660115 0.13704155 -0.1719951 0.03487612 -0.098520696 0.02007954 0.060349844 -0.10046183 0.1777628 -0.09162558 0.014234383 -0.011435189 0.052261014 -0.273749 -0.22037919 0.10334831 -0.20319171 -0.044734903 0.10721651 0.14120807 -0.2845068 0.18209016 -0.058417287 -0.038867626 -0.07398141 -0.055286452 -0.173937 0.012677358
21 0.07517164 -0.31329244 -0.32098114 0.06495208 -0.05870329 0.11229144 0.14422593 -0.10005495 0.07830969 -0.018866142 -0.018374039 0.037561253 -0.38439858 -0.17012943 0.01796722 0.038842335 0.0033279501 0.031794857 0.18668789 -0.14238279 -0.15541239 -0.020486273 0.2107959 0.24907587 -0.0045959842 -0.18363467 0.22340843 -0.094297744 -0.11859049 -0.20453821 0.09420232 0.01239996 -0.091916725 0.18463886 -0.20884034 -0.017310813 0.068180874 0.026117964 0.04457796 -0.10406851 -0.055858046 0.1405662 -0.09174822 0.025462568 -0.002482182 0.12388385 0.09460924 0.1379817 0.024699824 -0.10454855 -0.2477863 0.0011343642 -0.091798306 0.04937151 -0.105235055 -0.054731123 0.017060978 -0.022946404 0.08729731 0.10433703 -0.04480928 0.051635683 -0.21029122 -0.19005896 -0.068784565 0.090565726 -0.13705623 -0.03932911 0.32780534 -0.12804534 0.15278201 0.056601845 -0.08084883 -0.009026688 -0.0038463147 0.004783159 -0.060509674 0.05606096 -0.040603798 -0.015774071 0.16163334 0.04420801 0.05372952 0.16597354 0.12001781 0.14288427 0.1812214 -0.01992535 0.06265049 -0.20735805 0.28110632 0.11941866 -0.059590258 0.06938142 -0.09335811 -0.00018565703 -0.2877846 -0.19071434 -0.04681392 0.27184165 0.0600345 0.22517991 0.11264617 -0.0027890445 0.15050018 0.08634702 -0.1005381 -0.058456525 -0.031605363 -0.046553474 0.12067423 -0.004562343 0.30775076 -0.22207133 -0.14734133 0.22699445 -0.45883834 0.14737467 0.059615362 0.025248313 -0.39588845 -0.029866481 0.17034075 -0.024263406 0.04171916 -0.004953006 -0.12299937 0.19999352
127 0.11244559 -0.014418511 -0.1451504 0.048435785 0.022015285 0.05232114 -0.0049089114 -0.20280108 0.13844961 -0.06389834 -0.014376488 -0.042054843 -0.079977706 -0.1658292 -0.22427016 -0.17184229 -0.13509268 0.10501906 0.07030375 0.02754605 -0.103925474 0.06298332 0.18256478 0.046759285 0.04525342 -0.008997443 0.24309032 -0.08942468 0.019020844 0.09317105 -0.039690576 -0.04070189 -0.127427 0.27039 -0.240626 0.1612447 -0.24046594 0.08339973 -0.032689914 -0.031558618 -0.2473007 0.08311822 0.06608745 0.059870537 -0.12015638 0.043122966 0.07261909 0.113567814 -0.13683137 -0.08928479 -0.021749659 -0.03463721 0.08440613 -0.0035693725 -0.064738005 -0.0426413 0.15582424 -0.11335555 0.11622366 -0.013184878 -0.025860738 0.15146197 0.0087443525 -0.18191876 0.02363379 0.10658739 -0.026982207 0.10510035 -0.06287747 -0.23163877 0.078612655 -0.06210647 -0.20394264 0.1319951 0.055289097 0.09364756 0.09032492 -0.0644642 -0.2895675 -0.088881835 0.21851672 0.011001333 0.18337607 0.091318496 -0.04520809 -0.041037384 -0.040512886 -0.043760695 0.06890483 -0.053939678 -0.03981274 0.29757628 -0.1783589 -0.07206707 -0.13291834 0.1079647 -0.25868258 -0.086981274 -0.100956745 -0.008546732 0.064228915 0.1166453 0.120758876 0.008601315 0.09622739 0.119782954 0.044739727 -0.08667435 -0.20012514 0.011279499 0.0811103 -0.18928353 0.32304856 -0.36034825 0.009439018 0.24204296 -0.33503595 0.06982639 0.36196333 -0.057438795 -0.114534125 0.016352618 -0.06701309 0.17537336 -0.0014120842 -0.30071178 -0.21944429 0.19298553
130 0.12524903 -0.37379247 -0.48146123 0.01151847 -0.32781368 0.24371333 0.19766746 -0.329182 -0.03204538 -0.034942042 0.07782684 0.28616777 -0.43756562 -0.242686 -0.16061261 0.06075444 0.031707052 0.22905476 0.019124378 -0.18877152 -0.30101782 -0.2636296 0.0011226386 0.45866877 -0.12871608 -0.2511756 0.28249985 -0.21877904 -0.23685947 -0.07925302 0.41419497 0.035739526 0.11898647 0.12398686 -0.3949458 0.07871473 0.13563012 0.10990596 -0.097248964 -0.21600023 -0.1891748 -0.17836992 -0.07517008 -0.24467945 -0.03896889 0.16305089 0.33996677 0.23908262 0.06925784 -0.13842613 -0.5298428 -0.024872718 -0.25974935 0.063863285 -0.43645138 -0.20221178 -0.040634807 -0.2845093 0.124010965 -0.18489334 -0.3073798 0.17736505 -0.15537363 -0.39433905 -0.005473108 0.3472263 -0.16703267 -0.19576848 0.31736422 -0.13599347 0.059913997 0.08117252 -0.093907595 0.012193972 0.1294604 0.12285958 0.22590874 -0.10543909 -0.0545195 -0.14496922 0.14524764 0.13269305 0.064091854 -0.06651378 0.28017834 -0.15995154 0.119235545 0.108115956 -0.046042755 -0.20873122 0.24725936 0.23787545 -0.058760393 0.14105009 -0.041602522 -0.13754168 -0.35426134 -0.26824135 -0.053070553 0.06676962 0.18634371 0.19108044 0.053276252 -0.066528626 0.10179359 0.060859084 -0.095101394 0.12565188 -0.11921823 0.17266625 0.12390711 -0.076710135 0.14773324 -0.20109959 0.11340185 -0.037487403 -0.45187253 0.05809596 0.12411445 -0.0008698486 -0.27665123 -0.06874404 0.087946825 -0.16521558 -0.08597094 -0.053678527 -0.1659438 0.103319
129 -0.038640834 -0.14157492 -0.0920629 -0.0055541755 -0.1254823 0.023769407 0.0045270133 -0.019149542 0.05514532 -0.019683277 -0.087377615 0.13440254 -0.24797593 -0.11950267 -0.023475138 0.13074824 0.03895394 0.050717033 0.2098769 0.008190899 -0.15638573 -0.0035838704 0.20997 0.20115678 0.12805657 -0.018848984 0.2132718 -0.07411421 -0.03984829 -0.08086122 -0.07320602 -0.091806106 -0.0898074 0.19714502 -0.115774006 -0.062616624 -0.15879619 0.09087267 0.058484737 0.059586592 -0.17296098 0.005579611 -0.036895197 0.07840246 0.007956008 -0.021512128 -0.08522761 -0.044709284 -0.052277505 -0.007541429 -0.18476975 0.027909275 -0.02376834 0.11461866 -0.0420422 -0.04467618 0.08538012 0.084241375 0.026305957 0.0046464126 0.07355366 0.014771336 -0.22129433 -0.3932103 -0.09602982 0.0014621033 0.04758414 0.098700464 0.13386749 -0.3025505 0.046971068 -0.023320526 -0.16867961 0.026386734 -0.06250937 -0.075593874 -0.069462806 -0.09445348 -0.15056543 0.048840642 0.024644582 0.024623338 0.026667472 0.070197895 0.10116618 0.1539453 0.08479847 -0.086925745 0.050755806 -0.06636618 0.0006449894 0.24140197 -0.22803143 0.03567909 -0.06526509 0.0024012958 -0.4002654 -0.16864133 0.054574996 0.21987575 0.04758701 0.03996821 0.029896988 0.11325819 0.23550063 -0.0511995 -0.00032486624 -0.12376442 0.01793308 -0.112159036 0.19767915 -0.10448201 0.28788364 -0.29301634 -0.23347679 0.24047893 -0.38832122 0.16254754 0.19169863 -0.042851817 -0.2204902 0.060646582 0.061542004 -0.044780575 -0.155881 -0.15221345 -0.12482501 0.12057524
26 0.14670971 -0.34347546 -0.5507346 0.037263766 -0.33847773 0.25870904 0.19509374 -0.40481848 -0.02775953 -0.029639248 0.090976134 0.23248559 -0.4188826 -0.3045866 -0.15490562 0.011528043 0.0065394165 0.2313079 0.011294478 -0.17780647 -0.27429 -0.17961863 0.0427738 0.40416086 -0.16602299 -0.25253856 0.26142707 -0.22680613 -0.1759684 -0.09920958 0.384491 0.036220435 0.08130252 0.13428088 -0.36198762 0.06539258 0.085935675 0.0681922 -0.037101414 -0.1957075 -0.18862298 -0.18288523 -0.09545734 -0.20585556 -0.015238259 0.17163678 0.2907935 0.24583742 0.04097908 -0.1831916 -0.5309908 -0.040545285 -0.23027478 0.006778533 -0.37365472 -0.18710081 -0.016535202 -0.29044658 0.13841416 -0.15265565 -0.27198255 0.14186196 -0.18370458 -0.36855853 0.003411088 0.27366346 -0.20292391 -0.22597942 0.31358963 -0.16498032 0.049149334 0.0957655 -0.10054006 0.024397295 0.17817521 0.10820353 0.14583501 -0.10904277 -0.0960239 -0.16166888 0.09797297 0.17760952 0.0702137 0.049932793 0.22271346 -0.13847946 0.14087692 0.05701836 -0.023458578 -0.19188403 0.3066018 0.29036292 -0.05042455 0.11253607 -0.036887128 -0.11223131 -0.29956284 -0.25139627 -0.06187707 0.11235022 0.17650525 0.16603364 0.112799115 -0.11541782 0.0969489 0.07174717 -0.090796754 0.15007961 -0.20756757 0.19208753 0.18363138 -0.09257687 0.18686552 -0.27553597 0.08336248 0.0017822263 -0.4693739 0.08187147 0.1963449 -0.00853222 -0.32637733 -0.13686973 0.089224175 -0.1530703 -0.021555185 -0.087888114 -0.12556392 0.09500284
119 0.06122545 0.07288339 0.01262442 -0.03043277 0.14192492 -0.18207328 -0.18657205 -0.44553024 -0.061276004 0.114612296 -0.050622124 -0.1202255 0.0033885941 0.054454286 0.0993366 -0.2627891 -0.05582351 0.100248806 0.13573952 -0.040353622 -0.18325688 -0.048807178 -0.058662307 0.17898518 0.18163465 -0.018904163 0.0007436165 0.1644151 -0.10408566 0.1648359 0.14122866 -0.16434734 -0.18639758 0.18973455 0.051737748 0.00010170927 0.028637525 0.1121645 -0.054213498 -0.046889566 -0.023065992 0.062312488 -0.033191893 0.12643267 -0.06443004 -0.041535072 -0.0850291 0.070135035 -0.09123639 0.025249239 -0.24669434 0.021278871 -0.23834544 0.20667538 -0.013656983 0.09968007 0.1799622 0.051402412 -0.07006407 -0.09853574 -0.0936608 0.16229507 0.036940802 -0.28352278 -0.015225188 0.15451907 0.040021677 0.057217438 0.19365641 -0.11669908 -0.1413045 -0.13793673 -0.27595997 -0.08574326 0.06920494 -0.20119335 -0.07486919 -0.11744659 -0.032842312 0.123639464 -0.029049294 -0.0028038071 -0.11834591 0.07218697 -0.06563991 -0.014015851 -0.1249817 -0.055725586 0.15919487 0.17887971 -0.12837563 0.038458977 -0.24113017 -0.17379323 -0.25515643 -0.13294521 -0.3394845 -0.04146311 -0.0551662 0.16915664 -0.104378216 0.055734135 -0.20874266 0.114667624 -0.03441101 -0.040548842 0.06418418 -0.3177549 0.29052475 -0.17382634 -0.009294261 -0.11947182 0.31490043 -0.24491017 0.011352689 0.3126597 0.051623154 0.14351487 0.13805793 0.03972708 -0.15432784 0.12964337 0.006886285 0.07878776 -0.18395238 -0.09699117 -0.14707737 0.049037773
9 0.13957116 -0.36458623 -0.5546967 -0.04075982 -0.28186214 0.23876786 0.24158813 -0.4446922 -0.032257438 -0.03687033 0.11961029 0.23129107 -0.4535523 -0.27127594 -0.12610313 0.04246268 -0.052964665 0.17782682 0.02730607 -0.17705391 -0.33920532 -0.24293762 -0.025336057 0.46213087 -0.17635489 -0.29107013 0.33696243 -0.17683676 -0.19108109 -0.07418406 0.46508524 0.011491163 0.057672374 0.098916925 -0.385359 0.06802857 0.12315143 0.032723323 -0.04954064 -0.2509005 -0.20174657 -0.10413678 -0.13821524 -0.17383207 -0.06501704 0.17117403 0.29748267 0.28034234 0.052263938 -0.1858045 -0.47184184 -0.06256299 -0.21557274 0.06992547 -0.38160852 -0.18216287 -0.0016738579 -0.3024564 0.04839687 -0.16146125 -0.31253663 0.19082853 -0.1597757 -0.30111822 -0.01935527 0.22188975 -0.24476825 -0.26277843 0.33224195 -0.12945461 0.15547857 0.13921744 -0.010067061 0.055603225 0.20160757 0.0855743 0.12861653 -0.05600851 -0.032640018 -0.13688608 0.16943505 0.16864313 0.015883345 -0.013934736 0.31662557 -0.14312647 0.09959367 0.13067193 -0.0479759 -0.24332927 0.27934062 0.27704722 -0.047603875 0.07368885 -0.056975543 -0.12099744 -0.33126336 -0.1932371 -0.051217526 0.15108211 0.16992821 0.1848366 0.049845044 -0.14324072 0.0921485 0.10503601 -0.14061095 0.1708226 -0.15227954 0.18049642 0.20160584 -0.07973865 0.19419585 -0.26869175 0.1611528 -0.0076353867 -0.41081628 0.09072987 0.13646159 -0.012457445 -0.335906 -0.12158922 0.09440578 -0.2051658 -0.05862514 -0.052394796 -0.2128203 0.12201617
28 0.09251838 -0.3967312 -0.39453226 0.060340304 -0.29278666 0.2253172 0.2011106 -0.37649563 -0.043724786 -0.024363251 0.06108051 0.2128761 -0.47909743 -0.26358086 -0.20882618 0.05337099 -0.021106288 0.27798188 0.012012397 -0.16957754 -0.32884213 -0.24586233 -0.008188441 0.50088817 -0.1061308 -0.23179857 0.29085296 -0.22359261 -0.18988016 -0.07486177 0.39065522 -0.04852759 0.085072555 0.13700141 -0.38760638 0.04502268 0.08649284 0.1376637 -0.11465374 -0.21790463 -0.20349108 -0.22155249 -0.06673216 -0.25233534 -0.06783805 0.1565889 0.3779644 0.23941255 0.049767155 -0.14131162 -0.50626737 0.00034957266 -0.23138948 -0.0032485155 -0.41515064 -0.1834474 0.05547269 -0.23950024 0.13833287 -0.1937687 -0.319924 0.22457652 -0.06884817 -0.30127206 0.053614955 0.28907192 -0.16948824 -0.19157434 0.3264155 -0.091605 -0.025700105 0.04459889 -0.08887731 -0.062287178 0.16769469 0.13982363 0.11143816 -0.073470995 -0.037306122 -0.18413015 0.13737771 0.101536155 0.04427996 -0.061179455 0.16695432 -0.1838499 0.10369397 0.13355516 -0.01565126 -0.22162043 0.31508815 0.22932012 -0.05974759 0.08594113 -0.0936784 -0.1121193 -0.337746 -0.25660884 -0.04093472 0.07936084 0.131611 0.25611874 0.01682674 -0.09946727 0.033024333 0.05390978 -0.11941843 0.09737866 -0.071312405 0.1066326 0.15944615 -0.06568907 0.15539171 -0.2159291 0.11289118 -0.007506353 -0.47046474 0.089290604 0.17046015 -0.015964864 -0.27762756 -0.10777477 0.06869355 -0.12610257 -0.11917035 -0.0875438 -0.13446592 0.13498604
20 0.103235334 0.06755159 -0.01795037 -0.03463181 0.048362996 0.23904602 -0.104406 -0.20543942 -0.034839492 -0.08123593 -0.043692697 -0.0706633 0.059929717 0.099035226 -0.13616325 -0.19877112 0.020486146 -0.030939775 0.11979128 0.102822654 0.08242781 0.045281436 -0.1756269 0.03723059 -0.053886093 0.17377834 0.1619527 -0.11562136 -0.14747423 0.18221061 -0.020019881 0.11179473 -0.044894923 0.28429887 -0.060278773 0.24891144 -0.061942637 0.27062112 0.1215036 -0.017654836 0.03003951 0.12662992 0.23828155 0.09722491 -0.13968413 0.046356656 0.041332513 0.14477108 -0.09165238 0.14537755 -0.23566872 0.012400269 -0.1620671 0.2063276 -0.15764455 -0.11732237 0.08414783 -0.0024853935 0.02567682 -0.05941226 -0.048696946 -0.16317374 -0.12310421 -0.39283246 -0.015188905 0.18043688 0.22998099 -0.018166102 0.06369489 -0.40102607 0.19372453 -0.033259455 -0.17587937 0.233468 0.07940574 0.07931842 0.33059272 -0.22922873 -0.09615817 0.009350136 0.00952413 -0.032084882 0.051595084 -0.2771878 0.09773335 0.18404344 -0.081700355 -0.17609215 -0.05753755 0.10602257 -0.4030342 0.12711746 -0.006268232 0.08470058 -0.005791425 -0.15810972 -0.29262266 -0.0237361 -0.04451372 -0.022732433 0.13916714 0.0685192 0.011216599 0.1056269 0.20820954 0.11173779 -0.030389233 0.03681833 0.07788671 0.04942489 0.16520208 -0.09159941 0.37149337 -0.29965964 0.032705028 -0.036984693 -0.27152944 -0.02848443 0.26114097 -0.03367755 0.027558735 0.23662195 -0.046777688 -0.1528225 -0.05379333 -0.21292047 -0.27650702 -0.0071889553
85 0.12572959 -0.2623566 -0.5166654 -0.046339143 -0.2421172 0.21453676 0.18016881 -0.47783437 -0.058869556 -0.0087938225 0.07944055 0.17300904 -0.4173509 -0.2777908 -0.14980443 -0.075493775 -0.020800747 0.21967565 0.016043745 -0.19639215 -0.33591902 -0.23565076 -0.053205658 0.49270847 -0.17000525 -0.28764132 0.35372773 -0.17686133 -0.20259872 -0.025199458 0.48319304 -0.016262753 0.007577687 0.18550852 -0.3978048 0.0559975 0.1270219 0.10161269 -0.09021992 -0.2326065 -0.16965899 -0.17702638 -0.068191074 -0.29369903 -0.1323491 0.13715337 0.35481387 0.30154768 0.044726625 -0.21581668 -0.5050528 -0.07301681 -0.32645878 0.014767029 -0.41669434 -0.12188844 0.061050348 -0.28548068 0.14516048 -0.17586996 -0.33456725 0.24884464 -0.10761064 -0.3540377 0.040161323 0.27062142 -0.18038145 -0.22650614 0.33108836 -0.081474066 0.04104655 0.10046756 -0.1412715 0.035632264 0.20842196 0.113327555 0.14766222 -0.039636865 -0.019044818 -0.11390092 0.11716459 0.2298785 0.14713235 -0.0024719427 0.1616085 -0.1790941 0.1342283 0.18519622 0.004199784 -0.2013794 0.27683914 0.19034669 -0.029228527 0.10978196 -0.07247078 -0.18964797 -0.28028566 -0.25774446 -0.10498432 0.14507067 0.15193263 0.21452121 0.07692476 -0.12645769 0.03114545 0.0115790805 -0.065373875 0.07890669 -0.14113346 0.20581567 0.1516702 -0.09853748 0.14253221 -0.2824475 0.16139816 -0.014105491 -0.3668933 0.07829451 0.12943771 0.026024558 -0.23271868 -0.12020096 0.10325157 -0.11450154 -0.040330604 -0.05786269 -0.14597768 0.07748494
19 -0.04202088 0.06803978 0.14348076 0.0040613883 0.07819117 0.12910213 -0.17407295 -0.24751166 -0.023439843 0.07997075 -0.11488681 -0.06494217 0.017874828 0.10358316 0.013764791 -0.21142323 -0.114021234 -0.09940262 0.10363002 0.13660759 -0.035195198 0.015107115 -0.30945492 0.17541964 0.025106486 0.15652952 0.22337982 -0.21749158 -0.22396699 0.26956224 -0.008722563 0.07532639 -0.19602068 0.23738718 0.0050191856 0.12760279 0.07312571 0.3329773 0.08590836 0.06559977 0.04691403 0.062049635 0.22567198 0.083161846 -0.20575576 -0.052355655 0.040093068 0.08657989 -0.115783274 0.20782077 -0.17796162 0.056231767 -0.19546628 0.35658944 -0.094648555 -0.059087373 0.11938991 0.17887999 -0.13913171 -0.043516632 -0.037079565 -0.0982214 -0.16362867 -0.29974037 0.0767172 0.14290568 0.2693057 0.04134234 0.20669651 -0.34961444 -0.024555037 -0.10037646 -0.28824037 0.03981392 0.17684749 -0.11346589 0.06692314 -0.13099344 0.010662666 0.14662427 0.07306943 0.021215884 0.022657221 -0.29213098 0.070046306 0.090045184 0.060660984 -0.05777972 -0.008968925 0.13626024 -0.12436672 0.039722048 0.011585671 0.08074208 -0.13883 -0.16851032 -0.43389854 0.027126223 0.16057579 0.1053898 0.08879922 0.021040365 0.020845652 0.044153422 0.2383374 0.069956996 -0.07590609 -0.10613203 0.21326686 -0.037351437 0.21844245 -0.10610803 0.43464416 -0.3151242 0.102170154 -0.0017468536 -0.27403516 0.106744364 0.12918626 -0.01923467 0.08673786 0.29368165 0.0011956213 -0.23031962 -0.27127904 -0.18656565 -0.29643953 0.07483412
45 0.12698558 -0.061660208 0.063737616 0.091202945 0.10145917 -0.023655063 -0.01129643 -0.13491277 -0.109979175 0.07981303 0.13018084 -0.32467222 0.007460056 0.059045978 0.0747651 0.041339695 0.21606079 -0.008956475 0.21480595 -0.0032835642 0.07915835 -0.15886097 0.17000347 -0.0256042 -0.06943812 -0.1189995 0.17010024 -0.16040151 -0.06561166 0.09953913 0.18381123 0.21579166 0.2073275 0.10137236 0.09420474 0.04077133 0.13476571 0.19992304 -0.23420641 -0.2042861 -0.14640734 -0.027932383 0.0071192137 0.03155882 0.3513219 0.039655518 -0.14193702 0.077375084 -0.35952693 0.046282884 -0.3222519 0.13453689 -0.2148433 -0.13891378 0.14087632 -0.06471255 -0.087160975 -0.39240646 -0.08479448 0.05131047 -0.18784285 -0.16449113 -0.019328292 0.09473344 0.073300436 0.105376855 0.2865411 0.15514529 -0.019955214 -0.31750706 -0.0775127 0.08295827 -0.10372773 0.07745897 -0.23941253 -0.11320705 -0.03381072 0.05846812 -0.27859685 -0.27054352 -0.07239336 0.10944286 0.007899577 0.35337812 0.19841434 -0.24375185 -0.025245614 -0.20055851 0.20978384 0.010824473 -0.240249 0.19726159 -0.19274677 -0.14278251 -0.20775342 -0.15476835 -0.18693821 -0.08943664 -0.0042256066 -0.113640316 -0.30842936 -0.20890577 -0.031430636 0.13722591 -0.041067272 0.24458057 0.24636035 -0.12817085 0.23768573 -0.2244786 0.0191469 -0.17501134 0.316459 -0.17509086 -0.06596748 0.23843698 0.055508774 0.11707594 0.17716354 0.14517109 -0.32165062 0.07258586 -0.22302806 -0.013792614 -0.07726369 -0.035612337 -0.2934076 0.13468416
56 0.17465225 -0.07178362 -0.28226015 0.07677913 -0.0051071933 0.06324724 -0.02647456 -0.402908 0.07247067 -0.00049142324 0.026229117 -0.21333623 -0.008155705 -0.07554771 -0.14938255 -0.099914834 0.06796439 0.087872 0.054527733 0.023026694 -0.049855687 0.118108 0.07199166 0.10446892 0.009037184 -0.08835172 0.19727825 -0.18414216 -0.0931785 0.15931411 0.09400304 0.0039407234 -0.002956297 0.23869593 -0.10320198 0.11627233 -0.21609108 0.11925132 -0.026469247 -0.020468615 -0.0913148 -0.09496774 0.15471366 0.024954686 0.056048416 0.13514318 0.07019752 0.13875736 -0.16161522 -0.10296479 -0.22725067 -0.08759793 0.015792591 -0.01891232 0.034314517 -0.029006355 0.15977685 -0.041502833 0.042346973 -0.08911443 0.011832871 0.106499486 0.039348923 -0.17731258 0.16330096 0.165327 0.0820859 0.06297945 -0.07927042 -0.31012464 -0.022169258 -0.08640032 -0.12108827 0.13346346 0.09733027 0.073803395 0.114703275 -0.11178033 -0.21347536 -0.120477535 -0.006520157 -0.022644656 0.07883136 0.016260488 -0.034434777 -0.027361846 -0.110329024 -0.1269894 -0.004227138 0.089146 -0.036451593 0.17821227 -0.24550857 -0.06740004 -0.07365551 0.06457318 -0.21405968 -0.06004657 -0.024866236 0.103427246 -0.117396384 -0.00104453 0.12491336 -0.06781117 0.11295085 0.19630706 -0.06073346 -0.009690361 -0.147308 -0.00022647997 0.19912465 -0.20150834 0.37974805 -0.3303279 0.12977397 0.18320897 -0.25888547 0.13934687 0.4089271 0.0036044347 -0.05985321 -0.071083516 -0.09800119 0.14873616 -0.032753322 -0.2336373 -0.17825726 0.031249583
96 0.02662245 -0.17869449 -0.5643691 0.18108822 -0.15984167 0.27731165 0.16394126 -0.2782298 -0.00017941819 -0.068155125 0.087805 0.29033166 -0.25929993 -0.2453901 -0.12497635 0.027633866 0.0035725802 0.184549 -0.033762004 -0.10701062 -0.2584713 -0.123281516 0.10930121 0.32964137 -0.16555014 -0.13746871 0.20981352 -0.2244751 -0.19291054 -0.010367467 0.2604026 0.042090584 0.0015200028 0.12511632 -0.4096205 0.07792002 0.011632769 -0.008374266 -0.011646934 -0.09733578 -0.16251042 -0.04629829 -0.0038512836 -0.15989111 -0.12259251 0.08753073 0.28727847 0.24246813 0.036348857 -0.230803 -0.35448244 -0.13348265 -0.23597822 0.14819632 -0.35927078 -0.14124276 0.019050008 -0.27020055 0.129137 -0.10154819 -0.23591705 0.1558431 -0.15201457 -0.38702402 0.056032125 0.2338059 -0.22062874 -0.20095992 0.3178658 -0.13701135 -0.013543761 0.028064933 -0.12186793 -0.008156299 0.1979663 0.0888213 0.24099454 -0.16304292 -0.12277919 -0.14444268 0.19041204 0.07835142 0.10828638 -0.14244336 0.17860529 -0.11398017 0.2278654 0.05680988 -0.0764675 -0.095614195 0.21461749 0.28938863 0.0030958164 0.12328733 -0.05824912 -0.14031292 -0.36569855 -0.292175 -0.082210496 0.045238737 0.2560463 0.25043496 0.12633795 -0.124728985 0.18539405 0.14065982 -0.06859978 0.08619344 -0.29455167 0.23568457 0.09715914 -0.08950134 0.2128778 -0.24428298 0.08742336 -0.045834698 -0.51319194 0.055971287 0.2236046 -0.0906281 -0.15724349 0.03742179 0.058870308 -0.020107107 -0.032469876 -0.19941247 -0.16074906 0.06620929
49 0.12526473 -0.29559845 -0.4230597 -0.019394327 -0.19352117 0.1286603 0.15717219 -0.20195045 0.106564246 -0.05218061 0.015792223 0.18007615 -0.30821478 -0.28436288 -0.10534237 0.013830628 0.117288545 0.2202507 0.03992475 -0.18118405 -0.29058024 -0.08120418 0.12021362 0.43260264 -0.11075402 -0.23184912 0.29938975 -0.15149273 -0.16528305 -0.09757651 0.32854512 0.0361057 0.030984927 0.2542514 -0.34030536 0.098282464 0.05798305 0.14171655 0.008564318 -0.16319926 -0.17895795 -0.18995748 0.006524997 -0.13351405 0.021602679 0.11858264 0.21516277 0.13623546 0.06741173 -0.116365224 -0.34204778 -0.10822567 -0.12073246 0.06791239 -0.25214517 -0.15091087 0.004725703 -0.2025141 0.09295489 -0.1664018 -0.069663964 0.19265752 -0.12039576 -0.3582934 0.0016076436 0.22322918 -0.0875154 -0.12797517 0.16815698 -0.11243224 0.14491038 0.14905223 -0.121715456 0.054350153 0.103057936 0.11213993 0.1584523 -0.0584458 -0.0812015 -0.07888533 0.079800166 0.13974604 0.11810124 0.07580735 0.15200102 -0.05757844 0.08704364 0.030817317 0.049637944 -0.15663284 0.11467021 0.13079639 -0.12729435 0.20080924 -0.10427588 -0.060034726 -0.29245663 -0.20904447 -0.08745359 0.1829964 -0.0062393933 0.201046 0.20107898 -0.099678874 0.05386287 0.043846108 -0.031616755 -0.0072982204 -0.1581414 0.069559485 0.016027704 -0.098936014 0.18503347 -0.2516 0.045323048 0.05989137 -0.36212948 0.083045155 0.21582958 -0.029660003 -0.29246676 -0.09100607 0.05133707 -0.025335 0.03984331 -0.093232475 -0.13412991 0.14834732
84 0.08419138 0.15711376 -0.31620362 -0.24509694 0.22195372 -0.046827875 -0.012094046 -0.4405243 -0.16334328 0.053449508 0.01664483 -0.21346897 -0.010848831 -0.108049795 0.0990177 -0.43805316 -0.029967029 -0.2927657 0.1694644 0.047581937 0.015916303 -0.08813488 0.07908293 0.020528119 0.12496102 -0.11532258 0.022609463 0.03052103 -0.08796061 0.23946469 0.19593272 0.065532476 -0.028081989 0.04600888 0.07854352 0.10705858 0.18419436 0.075435735 -0.2629964 -0.23291099 -0.2808131 0.26703966 -0.07193085 0.100806616 -0.04620985 -0.054239273 0.036888756 0.2848721 -0.21065244 -0.05918081 -0.06296817 -0.15632315 -0.4017876 0.19208425 0.117698394 0.18150875 0.17210518 -0.20472221 -0.02907726 0.25459868 0.05593926 0.048504885 -0.10006493 -0.06193132 -0.12089224 -0.11756917 -0.087091655 0.06316009 0.1696827 -0.1577224 0.14130367 0.07466606 -0.16416925 0.11523942 0.06848495 -0.10121122 0.13191831 -0.037406463 0.0010636308 -0.07547167 -0.0989072 0.10266042 0.0003337218 0.0043178946 -0.0710377 -0.11628169 -0.12963594 -0.033992287 0.052146833 -0.025953323 -0.17499521 0.21843144 -0.20421368 -0.27647176 -0.20880818 -0.17274405 -0.13208468 -0.044363398 -0.21365984 -0.021023205 -0.074157245 0.011332373 -0.064524494 -0.05475644 0.03055085 0.044162214 0.14727002 -0.07225551 -0.11588749 -0.008807592 -0.033976864 -0.20269175 0.24258076 -0.23936346 0.024513574 0.21221182 0.018848788 0.112907 -0.036984842 0.096456766 -0.023559643 0.26406437 -0.11230677 0.09008472 -0.038184475 -0.04271951 -0.3312337 -0.013457725
66 0.06422513 0.16663572 -0.06485837 0.041406572 0.07586397 0.28047928 -0.046087142 -0.22049645 -0.07436019 -0.08189452 -0.049001005 0.051557817 0.030646773 -0.018359588 -0.10043715 -0.06296293 -0.01587903 -0.08517154 0.096861176 0.26140106 0.011314176 0.11743566 -0.09888268 0.082767695 -0.19670963 0.2063871 0.19133766 -0.13923065 -0.21424456 0.2553056 0.035175193 0.17012973 -0.18801264 0.38271073 -0.19387603 0.15259644 -0.07458117 0.28357077 0.13236818 0.07128686 -0.12788302 0.11669613 0.1833258 0.061606236 -0.07529386 -0.13935418 0.07544828 0.1887076 -0.10915936 0.11710581 -0.20758691 -0.014442521 -0.17912568 0.21457152 -0.14017288 -0.15395592 0.05291895 -0.12966403 0.038924925 -0.086372405 -0.0064606066 -0.12515512 -0.16621229 -0.31222603 0.04403476 0.024624404 0.002401251 -0.0873442 0.013528625 -0.25702238 -0.007108512 -0.18881045 -0.17768982 0.1309051 0.23321006 0.012844019 0.2170206 -0.27721944 -0.15883225 0.008476137 0.08008972 0.03933889 0.042739928 -0.22850452 -0.08025552 0.0052583897 -0.032865945 -0.112969466 0.043968413 0.05775135 -0.3146122 0.1948948 -0.07348477 -0.06337286 -0.16599604 -0.25646323 -0.3008712 -0.18828648 0.0076984353 0.11703866 0.09862233 0.056589134 0.063869275 0.07094762 0.08830738 0.1500651 0.006759295 0.054530434 -0.008088239 0.06751525 0.12099545 0.0058324966 0.26468188 -0.28254837 0.04909088 0.0018432048 -0.2513077 0.005401161 0.41588327 -0.056223597 0.07409822 0.3053166 0.03960025 0.034218386 0.017347053 -0.32899293 -0.23577437 0.00029288649
113 0.15546174 -0.13044128 -0.43524387 -0.03827806 -0.13395602 0.07325583 0.1207406 -0.43506464 0.026540762 -0.049237117 0.104066856 0.07587175 -0.32842332 -0.21864025 -0.13008629 -0.17634492 0.0064440346 0.17914826 0.034770127 -0.11813425 -0.3006116 -0.09611774 0.14587232 0.30268005 -0.030739525 -0.23417673 0.25381047 -0.035057902 -0.18038797 0.061394315 0.39049557 0.0076154415 0.01795078 0.1584111 -0.28226957 0.06848266 0.036476754 0.01277605 -0.16913477 -0.18333286 -0.20780659 -0.057589944 -0.072544895 -0.14602162 -0.09134727 0.12017075 0.23110707 0.27122262 -0.0076039275 -0.24431948 -0.28140348 -0.06857336 -0.2276543 0.032119792 -0.17724922 -0.031119356 0.05290791 -0.31097513 0.20707257 -0.05822737 -0.14808045 0.2555101 -0.047257684 -0.24219437 0.02971839 0.1698549 -0.26915202 -0.04434749 0.20265166 -0.09323943 0.011866224 0.07877494 -0.21938695 0.065366685 0.14217949 0.061783873 0.11618851 -0.06390586 -0.087098956 -0.19614212 0.119119875 0.17627208 0.20050153 0.054555546 0.10245103 -0.2214284 0.078056306 0.13034707 0.053903624 -0.13880707 0.21382473 0.25346926 -0.091734216 0.07495144 -0.06926666 -0.1395744 -0.1705568 -0.19534643 -0.10234879 0.09297427 0.07927786 0.13397947 0.12285243 -0.097455986 0.049020488 0.045700047 0.0462687 0.08080669 -0.21495368 0.18212296 0.08931058 -0.16390362 0.13529547 -0.22449952 0.16173278 0.06492008 -0.23207884 -0.008357386 0.17310551 -0.018611927 -0.2255294 -0.099151924 0.02720062 0.113812774 0.044357076 -0.0030465345 -0.09848914 -0.0025524753
135 0.14815482 -0.43361259 -0.52461684 0.028785847 -0.2954504 0.323069 0.25851136 -0.41391405 -0.033452 0.0067213746 0.04471264 0.21031976 -0.46720344 -0.2615623 -0.115504734 -0.062405206 0.0010450747 0.24070339 0.010704111 -0.16075742 -0.29207408 -0.17367455 -0.08242489 0.42956847 -0.21435593 -0.23490211 0.36630237 -0.28073725 -0.2110584 -0.08301125 0.41540337 0.04913051 0.10367151 0.10837395 -0.35487586 0.06688188 0.17739959 0.107189976 -0.09277803 -0.26499376 -0.15752922 -0.1701332 -0.0494543 -0.1991633 -0.032606985 0.19448516 0.32014188 0.29421556 0.09189636 -0.16855338 -0.42069605 -0.060407143 -0.23287056 0.08474421 -0.3937264 -0.2592388 -0.07336832 -0.37029415 -0.012432312 -0.16982907 -0.2876919 0.1387782 -0.17137866 -0.3209223 0.05785033 0.2795378 -0.19887185 -0.2285873 0.38133565 -0.19432873 0.09325378 0.106446974 -0.074063875 0.03457576 0.17329106 0.082086086 0.16177602 -0.07732793 -0.027875468 -0.20030393 0.16609843 0.13699608 0.042525746 -0.10071353 0.27076626 -0.15132979 0.16947937 0.068297796 -0.0133774225 -0.19805346 0.30606496 0.24895166 0.05437026 0.20782709 -0.085385494 -0.19116244 -0.32377562 -0.23120888 0.002831173 0.110473946 0.1489488 0.19806945 0.12386208 -0.17230886 0.1380935 0.1344118 -0.1013512 0.17909648 -0.17000952 0.18552224 0.16493751 -0.058800187 0.15909316 -0.21447833 0.15945166 -0.11624015 -0.43317863 0.073943086 0.14409676 -0.023298943 -0.25459668 -0.10690724 0.06533918 -0.23096326 0.03336339 -0.11251068 -0.19001265 0.1082766
111 0.28695345 -0.1515636 0.07538569 -0.14771368 -0.0045537055 -0.20712739 0.08170623 -0.18518691 -0.10265691 0.058934696 0.096408494 -0.08185583 -0.13995703 -0.045933217 0.012058961 0.06891574 -0.025545714 -0.11259067 0.22994083 0.11221382 0.23933934 -0.17179634 0.08353733 0.018539658 -0.012564 0.024912119 0.046990138 -0.06305573 0.014185473 -0.077613905 0.05170547 0.16384196 0.25856566 -0.052098002 0.063905604 0.12558058 0.35529917 0.2015496 -0.23824929 -0.21479183 -0.4125442 0.12965257 -0.30715576 0.15755667 0.17955254 -0.09797867 -0.044952873 0.18220763 -0.22295605 0.07708578 -0.23865998 0.27877995 -0.16818567 -0.09864406 0.04646422 -0.11025619 -0.07399763 -0.14945978 0.001421877 0.14285178 -0.10817769 -0.25524157 -0.2269368 0.11067869 -0.26131213 -0.10800959 0.058615923 0.0753935 -0.02835671 -0.33437228 0.19506314 0.065796115 -0.0013691845 0.004966657 -0.15001129 -0.14268522 0.076462224 -0.17804977 -0.3586743 -0.18521863 0.05920123 -0.07436551 -0.26444086 0.11690179 0.2122164 -0.22022456 -0.09340388 -0.23824185 0.06856081 -0.17273946 -0.24285927 0.4358579 -0.22953601 -0.28201535 -0.2853597 -0.06293626 -0.26157025 -0.051441133 -0.040443722 -0.1572536 0.0914052 -0.07069484 -0.24772063 0.1543802 -0.11552908 0.046425138 0.0020065038 0.060568552 0.23621672 -0.08006671 0.05845565 0.1035593 0.22144784 0.030349024 -0.33032924 0.22123268 -0.13470244 0.1746111 0.03643543 0.050091513 -0.39766335 0.16558212 -0.014151583 -0.14778161 -0.28436923 -0.028683847 -0.3965578 0.1963545
137 0.16258413 -0.362434 -0.5580999 -0.020664714 -0.30769122 0.25432312 0.2654103 -0.45205113 -0.039510228 -0.025392419 0.11966009 0.25450855 -0.44766232 -0.2671864 -0.10582241 -0.024271237 -0.023072114 0.21402343 -0.010991084 -0.20577785 -0.3259779 -0.2114518 -0.063683875 0.42581105 -0.17770408 -0.31084618 0.2509349 -0.22018415 -0.2371009 -0.098780945 0.4431797 0.058930226 0.08245677 0.03618406 -0.33416727 0.06402285 0.20107678 0.0799831 -0.104558036 -0.2569721 -0.14444862 -0.14097543 -0.10995586 -0.16721757 -0.041732658 0.2153988 0.3199077 0.30145243 0.07338607 -0.1689168 -0.4650227 -0.021428324 -0.26964164 0.10938125 -0.39665118 -0.22435407 -0.088200845 -0.30707303 0.08455622 -0.11965611 -0.28543484 0.18249916 -0.1785176 -0.38079202 0.032280203 0.2532146 -0.23079327 -0.25275117 0.36296454 -0.1453337 0.12543193 0.13419195 -0.08838672 0.00824473 0.174353 0.089819394 0.13549483 -0.08196173 0.0001945339 -0.17194314 0.16774188 0.20502692 0.013132993 -0.091020845 0.29402798 -0.16167071 0.1583055 0.057626855 -0.06422801 -0.18851884 0.29318509 0.24814554 0.012283506 0.14979157 -0.06332106 -0.11209353 -0.3453108 -0.20122947 -0.00515682 0.14316154 0.1870009 0.20769258 0.062379006 -0.13042194 0.13688707 0.11179646 -0.15264165 0.1693364 -0.16856891 0.1947775 0.16743937 -0.054289386 0.19448498 -0.21420471 0.18427339 -0.044116788 -0.44924563 0.085769676 0.09393329 -0.02020919 -0.32822123 -0.07510237 0.10367553 -0.1939293 -0.035467952 -0.039902616 -0.16843815 0.09974962
136 0.22919638 -0.11306752 -0.19723332 -0.12812494 0.11637887 -0.15598875 -0.02651413 -0.79481685 -0.27920952 0.16397506 -0.054041307 -0.39291564 -0.11883296 -0.10115699 0.1308046 -0.52258277 0.026580622 -0.19206895 0.060958166 0.09749912 0.04970693 0.049340945 0.21542592 -0.017605335 0.10802549 -0.0847438 -0.027332872 -0.044318933 0.024465973 0.0640314 0.02186874 0.09180888 0.007379599 0.19060743 0.049201056 -0.029085824 0.026940333 -0.0012109528 -0.09246646 -0.05207772 -0.2080945 0.08013906 0.06462977 0.03418342 0.018982379 -0.08680693 0.022749582 0.11105776 -0.12839888 0.023399718 -0.13156147 -0.083991654 -0.39165133 0.13397802 0.10968538 0.025250582 0.11626188 -0.17166366 0.050479155 0.20493987 -0.03725494 -0.102430634 -0.08872636 -0.026765428 -0.120835185 -0.20116648 0.09243937 0.1265764 0.032983 -0.22052218 0.00025210468 0.035777155 -0.08205896 -0.016721867 -0.04919028 -0.108323365 0.06852966 -0.1340258 -0.018939098 -0.15193367 0.024635907 -0.0041735703 0.022112308 0.015975028 -0.003471722 -0.11965307 -0.021676898 -0.08129284 0.040925924 -0.14609514 -0.16374746 0.17156401 -0.142253 -0.07378233 -0.15479961 -0.17905252 -0.14461823 -0.12780084 -0.04867694 -0.13405283 -0.08551666 0.022578424 -0.005355254 0.07985402 0.058607172 -0.023176976 0.2528445 -0.10876924 0.0063695707 -0.0049616834 -0.005886566 -0.17884101 0.042197403 -0.015493702 -0.2615079 0.14195979 -0.024350347 -0.00085530046 0.06591221 0.016402729 -0.08038644 0.26345557 -0.15893728 0.021206336 -0.09158811 -0.0636799 -0.13475156 -0.022019824
11 0.11407404 -0.07100413 -0.039967984 -0.109665334 0.0067663486 0.18336238 -0.058044504 -0.36100587 -0.03659538 0.059704646 -0.09580921 -0.15085652 0.036405765 0.08780201 -0.12026179 -0.24372071 0.048990373 -0.10956912 0.047378287 0.09692628 0.06426214 -0.013992732 -0.17417657 0.11637524 0.07952891 0.13909344 0.18848063 -0.16125524 -0.22317293 0.09737616 -0.12154893 0.06892209 -0.081035525 0.30199075 -0.048068497 0.20426902 0.029970888 0.35235703 0.07253143 -0.054061152 0.08251666 0.07120622 0.25135073 -0.04935061 -0.18819633 -0.051930085 0.089950584 0.12092957 -0.1542038 0.15239124 -0.13265549 0.053485747 -0.13560054 0.17600755 -0.037358727 -0.00067704363 0.07802731 0.02623665 0.051881224 0.09951362 0.06449986 -0.11798065 -0.047822427 -0.30290413 -0.05041454 0.102542035 0.21250822 0.11051016 0.071084075 -0.35759646 0.16626729 -0.008755804 -0.1914258 0.1877599 0.066210404 0.13744901 0.32999337 -0.18393637 -0.0069174184 0.07633756 -0.04343544 -0.017330064 0.06648265 -0.2519184 -0.031950768 0.1743878 -0.07018586 -0.052339777 0.06747286 0.074654676 -0.3543562 0.021314902 -0.099252075 0.111544065 -0.121345 -0.15376551 -0.21691798 -0.06279501 -0.057185393 0.03851531 -0.051910542 0.06884352 -0.04604244 0.079034925 0.19192359 0.08423839 0.008405018 -0.092565365 0.16558698 0.027353512 0.18897021 -0.01198329 0.29718584 -0.365518 0.04268102 -0.029738259 -0.28262955 -0.044649146 0.20334154 0.10051322 0.06607681 0.22110805 -0.0019585914 -0.07419704 -0.02645044 -0.1817047 -0.23220277 0.05124534
14 0.052217484 0.22017078 0.19641162 -0.05027163 -0.084846966 0.097108774 -0.11603672 -0.1104165 -0.045634516 -0.052271992 0.11440559 0.015248854 0.34546143 0.08395313 -0.030156987 -0.04845757 0.044763975 0.00044639123 -0.061873935 0.1443082 0.05834814 -0.038175646 -0.034178637 0.0022367623 -0.0474255 0.1393086 0.006415629 0.003410125 -0.092624314 0.16294327 -0.09408746 0.16303654 -0.18431455 0.31079698 -0.045756117 0.23541875 -0.08133496 0.27691287 -0.10020126 0.1027724 -0.059020746 -0.06905878 0.21645173 0.1280951 -0.029717535 -0.12478221 0.09135584 0.09951208 -0.10241682 0.1465284 -0.2941148 0.08648789 -0.2773625 0.32260534 -0.21005508 -0.2005717 0.019248603 0.022141421 0.06868362 -0.06775867 -0.19437139 0.009400375 -0.05626098 -0.4786548 0.1586522 0.1279331 0.23286329 0.009558858 -0.15974239 -0.23365651 -0.03276654 -0.15052754 -0.3504159 0.119839504 0.07039105 -0.050565567 0.26220328 -0.26890314 -0.13361956 0.12750825 0.08423569 0.15039593 0.06736173 -0.3109141 0.026777068 0.04736861 0.027477195 -0.11844272 -0.037495665 0.11997485 -0.3268907 0.035466865 -0.19519056 -0.034342896 -0.073330075 -0.13125262 -0.42032707 -0.16221255 -0.04388211 0.08774606 0.16408375 -0.049243648 -0.0037106052 0.25519174 0.20584647 0.074531496 0.05770222 -0.15322645 0.049632434 0.079417504 0.06939481 -0.0059094164 0.2940093 -0.13853472 0.038971316 0.105922505 -0.13048369 0.09261521 0.2660255 -0.018726148 -0.0056277546 0.29008526 0.049267106 0.06226922 -0.20919743 -0.29074302 -0.17735375 0.046629593
10 0.07659639 0.15770292 -0.03222227 -0.0050555216 0.11839264 0.15247016 -0.10178619 -0.26400223 0.020804653 -0.017943716 -0.07097197 -0.012365618 0.100940034 0.06356162 -0.10633742 -0.18408325 -0.032347456 -0.13331859 0.08460326 0.011907312 0.016226951 0.03766118 -0.26659292 0.0502179 0.045195084 0.15410206 0.14940807 -0.1528154 -0.3072307 0.27242988 -0.002035369 0.13458052 -0.1263943 0.35916063 -0.09206931 0.24775155 0.015209935 0.348761 0.0042996197 -0.007800855 -0.07834659 0.13909434 0.21531938 0.1408044 -0.21388577 -0.05433732 0.045872014 0.14542395 -0.1228881 0.18271089 -0.18523951 -0.032844003 -0.17484884 0.3595296 -0.100460015 -0.059633445 0.11116316 0.11854195 0.00935143 -0.046098012 0.060654495 -0.1320068 -0.10979525 -0.34213537 0.044554587 0.20226873 0.19444776 -0.04383248 0.12075128 -0.34547603 0.07799567 -0.087719634 -0.23800682 0.10219033 0.21130039 0.025545232 0.24760148 -0.20939708 -0.00847449 0.102916375 0.08221884 0.035115667 0.018522559 -0.25560674 -0.012484034 0.14965148 -0.0513745 -0.09177842 0.0051493826 0.22153653 -0.3439915 0.015021768 -0.06443142 0.061992694 -0.022843497 -0.15854284 -0.33392105 -0.0067275576 -0.0154067455 0.11514954 0.15453255 0.10795512 0.013797575 -0.011327021 0.19495553 0.11112653 -0.06400599 -0.104834996 0.0803755 0.046381336 0.17491536 -0.08246867 0.41942212 -0.3810002 0.179407 0.035425458 -0.22753996 -0.016739404 0.21585509 -0.019045962 0.080292806 0.30587626 -0.0066167857 -0.048879772 -0.115859315 -0.2398974 -0.3250174 0.028762829
92 -0.021903517 -0.0977311 -0.059984677 0.12198672 0.10793437 0.046612628 0.036190912 -0.053611018 0.0057162656 0.04478158 0.12627324 -0.18370363 0.061655924 -0.02210663 0.2182917 -0.14546075 0.12660623 0.07117372 0.14072478 -0.029774169 -0.0025860765 -0.09494407 0.14935385 0.2382449 0.13810198 -0.086899795 -0.10809323 0.08506238 -0.08015724 -0.051216554 0.03987734 0.13088158 -0.10946309 0.31007692 -0.003344263 0.07906459 0.25868624 0.17645364 -0.11982972 -0.039875694 0.058309313 0.020101532 0.04443831 0.16751891 0.26861304 0.18291041 0.11772303 0.124196246 0.050832275 0.0018771745 -0.38666373 0.11563245 -0.30480018 0.15350291 -0.03759672 -0.15017897 -0.101316445 -0.010709642 0.003131912 0.14159986 -0.17579754 0.0010887882 -0.012411349 -0.40221652 0.09032243 0.2300715 0.15986341 0.08336689 0.15783945 -0.03875302 0.006517201 -0.1106466 -0.304269 -0.07833352 -0.050785627 -0.057671536 -0.0169906 -0.006424462 0.08049538 -0.05005539 0.05459322 0.052266154 -0.035707492 -0.007520366 -0.09778251 0.19981861 0.16721025 -0.10949797 0.23098831 -0.11435052 0.16841857 -0.065724246 -0.13075595 -0.01501683 -0.22961584 -0.14260523 -0.43163112 -0.34461686 -0.07811682 0.27208123 -0.06711101 0.12542315 0.036840897 0.14284997 0.16892545 0.044381913 0.0074221278 -0.18581249 0.20777242 -0.14728808 -0.1653381 -0.09569265 0.2942554 -0.04314444 -0.07547804 0.24792284 -0.1815108 0.14017378 0.069093525 0.0745655 -0.33120832 0.079239614 0.11257263 0.23139906 0.20872141 0.034658812 -0.060782008 0.050219003
109 0.1704376 -0.023517432 0.011559537 0.066744275 0.06420118 -0.28417906 0.06728109 -0.2758155 0.009621605 0.065460674 0.06801354 -0.084651604 -0.0067813103 0.024981428 -0.015693871 0.09685303 0.025135158 0.023921838 0.10425371 -0.04168398 0.01614325 -0.23589762 0.08867427 0.16826974 0.020271964 -0.093490526 0.06481062 -0.012501056 -0.032173958 0.030434074 0.031924047 0.031998772 0.18565276 -0.020364357 -0.024654074 0.10767055 0.20549701 0.1528184 -0.1628753 -0.24416001 -0.22697699 0.0864216 -0.16672878 0.021051452 0.12489755 -0.077399954 0.0549311 0.15821849 -0.15368153 -0.029473944 -0.22154106 0.10089123 -0.07525307 -0.015836092 -0.04273606 -0.0780407 -0.010606718 -0.12561892 0.0064130877 0.12305091 -0.14513467 -0.080938496 -0.07106629 0.08354764 -0.20945632 -0.05698688 0.1292731 0.04898006 -0.115748145 -0.30262935 0.28935945 0.25031555 -0.09573868 -0.11827849 -0.20619904 -0.0056058113 0.2533393 -0.13893896 -0.34316155 -0.15301546 0.031158008 -0.1320608 -0.21333595 0.236963 0.23213099 -0.21439983 -0.17054643 -0.026972886 0.04948485 -0.059731055 -0.36172584 0.2485009 -0.17919336 -0.21699923 -0.23854657 0.001296026 -0.3361899 -0.1768802 -0.11019915 -0.33099774 -0.03133965 0.16512355 -0.40308782 0.07906763 -0.046331633 0.050052203 -0.0788196 -0.16119774 0.40450227 -0.096750185 -0.08484237 0.0017755452 0.092099056 -0.031870373 -0.15987094 0.08683204 -0.06765598 0.24373427 0.034889035 0.06461843 -0.3199595 0.048383903 -0.02063905 -0.08577826 -0.35897207 -0.12513277 -0.4013066 0.10219494
71 0.120465465 -0.38292295 -0.53688407 -0.045460384 -0.36587685 0.27383 0.27736506 -0.45789358 -0.08174053 0.021418096 0.12857549 0.2512061 -0.42626274 -0.30303362 -0.12881114 0.052400384 -0.007651687 0.23431289 0.05652841 -0.18017618 -0.3346977 -0.25931457 0.017554859 0.47884938 -0.22150971 -0.27599895 0.348584 -0.19652665 -0.21510492 -0.10198921 0.48200473 0.03796794 0.08042375 0.13540922 -0.4272673 0.05675841 0.1488504 0.1282026 -0.11487581 -0.19091684 -0.20396319 -0.17119187 -0.0945158 -0.19704795 -0.0028954593 0.15061371 0.29981235 0.22863849 0.06069283 -0.166516 -0.5298763 -0.03504692 -0.220893 0.05472487 -0.4238227 -0.19001481 -0.06986198 -0.31457895 0.07657727 -0.19566412 -0.33008444 0.20462576 -0.16560653 -0.34730744 -0.0016338747 0.30621162 -0.18859327 -0.288738 0.30604762 -0.09009234 0.06448171 0.12066494 -0.057994373 0.057294197 0.16830538 0.07624418 0.12997194 -0.05120979 -0.03273866 -0.09882812 0.14092712 0.22972761 0.054260205 0.011694339 0.3136025 -0.20416865 0.16634144 0.090410694 0.032553416 -0.20138048 0.3083867 0.24626559 -0.08532281 0.061649047 -0.09310188 -0.12084625 -0.3695476 -0.23904188 -0.06539336 0.18846437 0.19014402 0.16199417 0.10445869 -0.07574839 0.079983145 0.11683864 -0.08030065 0.101903096 -0.16587189 0.16211215 0.1476192 -0.045000456 0.22778343 -0.24605562 0.16584568 0.04151459 -0.4432761 0.08288222 0.15903598 0.019895539 -0.3633362 -0.11760672 0.12400692 -0.18740112 -0.09595043 -0.046150807 -0.163769 0.15573539
75 0.1065973 -0.243756 -0.49312574 -0.05505565 -0.25682583 0.23951237 0.15467834 -0.49218076 -0.036649887 0.0014138062 0.08113172 0.17672691 -0.4071261 -0.24901612 -0.13547212 -0.032874353 -0.062291574 0.20869662 0.08501038 -0.13831308 -0.3388663 -0.22519267 -0.0007963869 0.3953994 -0.11185964 -0.2544603 0.37320566 -0.20757744 -0.19529521 -0.0075928257 0.47904363 -0.0041728914 0.04157602 0.17626096 -0.3981454 0.09512946 0.05908386 0.0893487 -0.113715455 -0.19042152 -0.18758719 -0.10249584 -0.072057046 -0.18828093 -0.09434096 0.18764754 0.3002153 0.23989026 0.09463122 -0.20820858 -0.44630134 -0.07954589 -0.19820113 0.064692475 -0.4128629 -0.12816556 0.019443838 -0.27597085 0.06223573 -0.18965314 -0.26035514 0.26929978 -0.11424984 -0.3590274 0.00504334 0.27969846 -0.22316153 -0.2159102 0.27488562 -0.04790229 0.07463308 0.080562636 -0.09340724 0.06581375 0.14997701 0.06611834 0.112166286 0.0027011822 -0.02543764 -0.106342755 0.13040753 0.15250191 0.13812073 0.027725099 0.2187279 -0.15693243 0.11861618 0.14105698 -0.020185081 -0.16170205 0.33288705 0.21031909 -0.057005044 0.05963413 -0.03422716 -0.09478447 -0.28124738 -0.15511504 -0.07339838 0.1330212 0.15325446 0.14251995 0.098276384 -0.120157786 0.06931127 0.05951842 -0.045828983 0.117332764 -0.23816656 0.17224227 0.13189094 -0.11628081 0.24590212 -0.28024188 0.2335441 0.04919062 -0.3768331 0.06999286 0.12309484 0.0007666133 -0.20091537 -0.13072719 0.09979032 -0.111206174 -0.050197292 -0.036682338 -0.1454073 0.0703327
48 0.13302475 -0.13585448 -0.1914738 0.031675868 -0.0076073045 -0.047425635 0.020299336 -0.50114787 -0.03398279 0.0009562156 0.027187338 -0.13341045 -0.10843815 -0.22622746 -0.07145352 -0.26357418 -0.10293915 0.11873591 0.0026328883 0.12514071 -0.05726571 0.008544036 0.0035288408 0.25620154 -0.12413321 0.09411175 0.101242356 0.041803874 0.1192334 0.15949085 0.102432236 -0.057479635 -0.10166045 0.16425805 -0.054236427 0.020709055 -0.13685249 0.021027887 0.11243886 0.07862536 -0.22957437 -0.16410743 -0.11653553 -0.027650919 0.12525757 0.0762623 0.09833186 0.1783931 -0.053886987 0.059581853 -0.26090223 0.060223453 -0.058219027 -0.18047708 -0.117299646 -0.1275594 0.037526526 -0.020299241 0.11836432 -0.20744981 -0.19034034 0.09963864 -0.039347816 -0.14275739 0.041567195 0.07889469 -0.18976398 -0.039867338 -0.11477416 -0.17149945 -0.016776493 -0.14557873 -0.29332754 0.017266145 0.2218396 -0.010965923 0.085455544 -0.22615658 -0.26213744 -0.10520326 -0.015256279 0.061760295 0.01248446 0.06144697 -0.15771687 -0.19950399 -0.12446785 0.029275697 0.14783548 -0.14790213 0.1111096 0.31250077 -0.14395024 -0.17283283 -0.22288442 -0.072860725 -0.2879929 -0.26945567 0.014369948 0.07660046 0.04120786 -0.049805477 -0.02923751 0.04340781 -0.19626227 -0.0029043197 -0.15027319 0.014844607 -0.00031409826 -0.1367113 -0.05015245 -0.13643721 0.17559344 -0.2910946 -0.0464897 0.13285582 -0.23409007 0.1790732 0.36270335 -0.04175366 -0.2027946 0.037276056 0.03778577 0.13870144 0.04286078 -0.22174443 -0.18794563 0.06747813
46 0.122125044 -0.08165527 -0.0929711 -0.09171385 -0.070086524 -0.0030016864 -0.01762949 -0.2970833 0.071779795 -0.053511273 -0.039081607 -0.1996012 -0.119839415 -0.15118189 -0.075868264 -0.25277984 0.17925172 0.10270875 0.06481262 0.07975362 -0.14463854 0.12395876 0.26388288 0.10568848 0.07683005 -0.038280178 0.20959629 -0.13380946 0.08143576 0.09952315 -0.011586536 -0.098975785 -0.037100013 0.27598643 -0.093933724 0.07237109 -0.22808583 0.1074493 -0.03271798 -0.03751913 -0.29281783 -0.062458653 0.096834995 0.112361014 -0.033618566 -0.03393095 -0.022133825 0.17964388 -0.15018627 -0.11596774 0.044991422 0.0026938224 -0.07255414 0.041174863 -0.10368166 -0.011063588 0.17707303 -0.13526298 0.16076735 0.018170148 0.116143666 0.09152808 -0.017884342 -0.15954371 -0.0071703973 5.1024366e-05 -0.01617532 0.16674766 -0.046135332 -0.24890167 0.20950611 -0.026067523 -0.31875527 0.1552784 0.09623302 -0.0424307 0.18637058 -0.15595332 -0.19213508 -0.0452683 -0.0098989075 0.05979551 0.22115198 0.03273863 -0.123010784 -0.0655648 -0.061482195 0.12642209 0.06784678 -0.0876634 -0.076208234 0.24932577 -0.21766844 -0.007857055 -0.111670196 -0.10939154 -0.16896695 -0.17032902 0.021153558 -0.017898303 -0.07625343 -0.06211675 0.042167325 0.09954505 0.110037565 0.045893267 0.12089646 -0.102480516 -0.22165826 -0.116494514 0.023596967 -0.21742545 0.1503639 -0.2804031 -0.09991454 0.14487103 -0.14030209 0.104966044 0.2821874 -0.10458683 -0.034664802 0.014162912 -0.08484287 0.11195387 0.06697917 -0.2735429 -0.2875083 0.13789001
88 0.29442507 -0.13995557 -0.24368836 0.1450273 0.18846576 -0.28840876 -0.04241807 -0.41880745 -0.15281187 0.105048016 -0.04592917 -0.2562032 0.19274458 0.0003500958 -0.10125405 -0.1906862 0.246511 -0.2129546 0.038543884 -0.14885555 0.27595857 -0.043347117 0.29052597 0.030332966 0.11874299 -0.0430624 -0.22220641 0.054046433 -0.09535943 -0.0045097354 -0.1296436 0.19565001 0.21872011 0.071294345 0.1913349 0.057413794 0.15951635 -0.055365 -0.19092959 -0.32115 -0.42941794 0.08153331 -0.012914194 0.06410631 0.026035156 -0.15706405 0.11401804 0.22306235 -0.33872738 0.06705261 -0.3866432 -0.05227728 -0.48589 0.09169828 0.124729574 0.07404227 0.36464489 -0.17099291 0.19570985 0.2241367 -0.09876376 -0.18688957 0.025682034 0.023514122 -0.048026152 -0.16400398 0.11416705 0.09564975 -0.014315749 -0.21921988 -0.13213281 0.08322252 -0.09190392 -0.14298041 0.020252034 0.13697234 0.20442194 -0.30208606 -0.24571261 -0.28187546 -0.009573283 -0.03984307 -0.13964495 0.012896126 0.033245325 -0.11883882 0.011137702 -0.08397926 -0.051748592 -0.10746646 -0.47816205 0.071965285 -0.2695537 -0.042156346 -0.17585531 -0.11769201 -0.17916936 -0.15777828 -0.2027725 -0.21149535 -0.06391364 0.41032812 -0.05519281 -0.15359822 -0.17535593 -0.0057072327 -0.021539822 -0.06161561 0.0822229 0.03865875 -0.13132383 0.037503228 0.03618311 -0.025304716 -0.26050693 0.13596815 -0.07617642 0.10848177 0.22332785 0.0420491 -0.3117877 0.12687741 -0.16926837 0.07728335 -0.28012854 -0.29500926 -0.2023651 0.11675465
114 0.3064517 -0.07822781 0.034909327 -0.06072057 -0.08413905 -0.1295938 0.001383494 -0.31769148 -0.05647875 0.077948354 0.034735404 -0.071323074 -0.064159125 0.01827541 -0.045364663 0.0626519 0.01309947 -0.07224986 0.13066988 0.042339213 0.11289129 -0.16223845 0.078270085 0.01722812 0.024189482 -0.019792719 0.04691771 -0.110030085 -0.022411507 0.02949032 -0.00456883 0.1372323 0.25436985 -0.06614661 0.04611969 0.15988152 0.19435734 0.23822412 -0.109810375 -0.24850908 -0.25690198 0.08232412 -0.17841436 0.094096035 0.13951805 -0.06714905 0.0028902148 0.12383404 -0.20577231 0.027914627 -0.23592159 0.20730744 -0.036483765 -0.08491532 -0.0135339005 -0.10946797 0.00020375481 -0.14109753 0.039867293 0.08826857 -0.092473656 -0.17057036 -0.1039103 0.04787801 -0.08717464 -0.055895444 0.26373965 0.13066177 -0.15720154 -0.36304247 0.18129422 0.15216804 -0.04694275 0.004527017 -0.20182101 -0.011984469 0.10926922 -0.14633487 -0.42493743 -0.22402863 0.027014574 -0.030260114 -0.19662769 0.17702065 0.24251671 -0.20959023 -0.15973309 -0.21487355 -0.04295804 -0.05067438 -0.40437597 0.3114113 -0.28210232 -0.255562 -0.24049608 0.045568656 -0.28013456 -0.014529925 0.0039973576 -0.2603476 -0.027328182 0.0672758 -0.22361906 0.109212115 -0.066829555 0.10049996 -0.01927623 0.08342534 0.2849008 -0.042446747 0.057065833 0.052559488 0.2626381 -0.07408993 -0.12966044 0.1549528 -0.10019901 0.18946156 0.13292584 0.06653879 -0.33621994 0.09563824 -0.042426303 -0.14866458 -0.34656474 -0.10816579 -0.31022927 0.15297909
25 0.2302121 -0.12213001 -0.09880669 -0.2518114 -0.017623706 -0.1532921 0.11509267 -0.42286816 -0.06424182 0.17938147 -0.00057111756 -0.128575 -0.11777296 0.033784065 -0.037157074 -0.11226774 0.16688792 -0.3316787 0.12837304 -0.11609447 0.13019566 -0.04548133 -0.17207462 -0.00037670002 0.15993796 -0.081923746 0.091313675 -0.108529195 -0.1983254 -0.16847298 -0.17266788 0.159325 0.076054335 0.06495574 0.11271778 0.16080734 0.17973019 0.17624807 -0.07569108 -0.23119289 -0.11539249 0.15540135 -0.09463506 -0.027226426 -0.12216156 -0.067337014 0.09671352 0.28672987 -0.15519878 0.1686374 -0.23401357 0.081231005 -0.14748283 0.023784716 -0.08659867 0.04954457 0.08200614 0.0934956 0.08646418 0.2688339 -0.026456293 -0.17139804 -0.065372795 -0.1318501 -0.28462687 -0.043534957 0.11664283 0.16161172 0.10495745 -0.3568053 0.3600726 0.05777122 -0.11794232 -0.09306186 -0.13458759 0.05075272 0.2958523 -0.12496074 -0.1408618 0.07894329 -0.0076687755 0.028940069 -0.121928826 -0.079849675 0.1383665 0.030572204 -0.06926842 0.040876366 -0.015752254 -0.17322631 -0.3457964 0.12528464 -0.0622767 0.04456371 -0.014948592 0.0987931 -0.10233362 0.017343579 -0.051546853 -0.27199715 0.14594087 0.10105947 -0.31953493 0.10038036 0.05012823 -0.05159256 -0.23456526 -0.11570687 0.17592233 0.030102123 0.054040164 0.14239226 0.05528157 -0.17592594 -0.10837439 -0.010376804 -0.2598935 0.10864896 -0.13076863 0.22032839 -0.051237483 0.2138878 -0.066080116 -0.25362825 -0.17751579 -0.19792716 -0.36341432 0.1475014
36 -0.08750328 0.0084305955 0.024359819 0.019455701 0.11833096 0.009625858 0.0020259954 -0.45129436 -0.23059407 0.17711362 -0.20484266 -0.20728807 -0.009721309 -0.0014611054 0.14927316 -0.26812965 0.104621656 -0.21628475 0.17007728 0.06202285 -0.011624977 0.019266168 0.16336353 0.35846204 0.060475938 0.055384874 0.09547255 -0.09440713 -0.075277366 0.16024616 -0.0136333285 0.11950295 0.105009206 0.3609574 -0.0073159584 -0.05768026 0.09204964 0.21320106 0.034035005 0.01740582 -0.26887512 0.0022056529 0.17177793 -0.010080537 0.038131833 -0.14419182 -0.069763504 0.062170036 -0.14930959 0.18422131 -0.22834837 -0.17923707 -0.31505015 0.116226114 0.0066960296 0.13892499 0.23334903 -0.055416945 0.020500438 0.17180972 -0.061340664 -0.19643854 -0.0016765299 0.05473622 -0.19852407 -0.1385802 0.21212481 -0.0077935397 0.097348675 -0.19940062 -0.0020585936 0.10889275 0.030849217 -0.026238674 0.11996665 -0.10949076 0.07175523 -0.13316387 -0.05789695 -0.065284446 -0.09472461 -0.044131078 -0.092692636 0.024613261 0.015571003 -0.14609958 -0.12058851 0.04175644 0.26720294 -0.08912681 -0.22183597 0.14040978 -0.21465412 -0.1247432 -0.23553836 -0.2913085 -0.34428355 -0.2501461 -0.10185675 -0.18399985 0.020740198 0.042595956 -0.029247532 0.059881628 -0.00015203352 -0.044798423 0.1624462 -0.18569306 0.27605984 -0.013090603 -0.10176553 -0.12430046 0.030466935 -0.15898821 -0.20671837 -0.044317793 -0.17928042 -0.029262263 0.1228601 0.054974467 -0.13053297 0.34455287 -0.1303574 -0.03028149 -0.16497822 0.0036704105 -0.24523744 0.011890679
103 0.015872777 0.021042135 0.04268482 0.056516863 -0.15967207 -0.051758114 -0.13706994 -0.19380884 0.01645299 0.10452001 0.1156039 -0.12386467 0.15516709 0.005808636 0.1501969 -0.14269802 -0.07398018 0.1609857 0.13494056 -0.014180824 -0.04681497 -0.19343416 0.16516666 0.15479474 0.071632855 -0.040770758 -0.10450398 0.103962585 -0.16838488 0.018407542 0.008865289 0.16040327 -0.15722847 0.24718389 -0.023193253 0.09976419 0.2450313 0.25289285 -0.20607899 0.09990625 -0.07542307 -0.042014737 0.035002794 0.09277881 0.16959828 0.00019063852 0.040812023 -0.04811491 -0.104886845 0.010676519 -0.24252434 0.20967337 -0.18398042 0.14210758 0.06242889 -0.11741065 -0.13839829 -0.05906509 0.07987446 0.16268222 -0.08572396 0.07335761 0.0017417194 -0.36990377 0.13079111 0.2461711 0.30060333 0.19709422 -0.043169003 -0.054552313 -0.13120991 -0.14564422 -0.3755342 0.05118624 -0.22783948 -0.057208437 -0.07216244 -0.036023516 -0.10163589 0.077357374 0.06965569 0.23003346 0.07329896 0.13543756 -0.009974591 0.032572765 0.19677345 -0.13667119 0.22022958 0.014309366 -0.12601748 -0.0015069001 -0.24963054 -0.15028507 -0.25826636 -0.12489028 -0.42179462 -0.29185867 -0.054026414 0.21673097 -0.048983943 0.099094585 -0.023275044 0.20933264 0.16699779 0.096883036 0.1602815 -0.2764056 0.24233438 -0.08675716 -0.12357028 -0.06008349 0.2610375 -0.043033417 -0.018773826 0.37505025 -0.068829976 0.15220504 0.114566915 0.09472716 -0.19748561 0.06973986 0.10161717 0.20399453 -0.12893327 -0.024496583 -0.07888942 0.09333181
64 0.09296204 -0.30341384 -0.49222866 0.022400081 -0.26039222 0.2315438 0.23834468 -0.42120054 -0.05827655 -0.027462838 0.06272778 0.1854404 -0.40516466 -0.27730784 -0.15664613 -0.03450992 0.026940847 0.24755974 0.022694787 -0.1935804 -0.34143782 -0.22506547 -0.026193976 0.4405417 -0.13477595 -0.25471348 0.2902153 -0.19340165 -0.19775283 -0.018052258 0.4723251 -0.01310178 0.07619152 0.1214617 -0.3972916 0.067465454 0.13626276 0.104270026 -0.13767858 -0.2073983 -0.20713578 -0.16846034 -0.0731105 -0.24583112 -0.09975406 0.12367169 0.34282824 0.30014583 0.07253579 -0.22261925 -0.4721232 -0.08813045 -0.2718365 0.044598665 -0.40808812 -0.16104947 0.013379226 -0.34144855 0.13204265 -0.17081262 -0.28293258 0.21101159 -0.090253 -0.30846304 0.011345174 0.26526198 -0.19730295 -0.28773504 0.3728357 -0.11271589 0.06918081 0.06861652 -0.123639725 -0.018043874 0.23524544 0.10308369 0.1607539 -0.113788016 0.020554984 -0.18396656 0.094331704 0.22493982 0.09866595 -0.029868228 0.18841913 -0.21390878 0.10611799 0.17493162 0.001295388 -0.17123437 0.2562887 0.25939646 -0.0049403096 0.034349248 -0.047437754 -0.20219257 -0.3118733 -0.27828997 -0.09928936 0.068407334 0.1893895 0.2621837 0.041369636 -0.14522643 0.044360764 0.08996194 -0.07898485 0.10264987 -0.1571297 0.18146151 0.086862855 -0.10131962 0.13286929 -0.2503119 0.18758604 -0.0628938 -0.4031812 0.06457299 0.13051376 -0.06683443 -0.2291797 -0.055902824 0.08961481 -0.1088159 -0.025337595 -0.071693346 -0.21130167 0.08483856
22 0.15436417 -0.043611716 -0.22491582 -0.027044568 -0.024045032 0.015066256 -0.046345282 -0.06636166 0.08603054 -0.066218846 -0.07513231 0.03281483 -0.15331373 -0.17786829 -0.08233925 0.034461144 0.16406961 0.02303351 0.20806518 0.006749796 -0.03747142 0.15100217 0.3526393 0.06811647 0.079641804 -0.0025876071 0.1405765 -0.082705736 -0.08545249 -0.03543261 -0.075510755 0.049819205 -0.095466375 0.36020878 -0.22345315 0.10181048 -0.17502956 0.098896846 0.08276174 0.010051213 -0.2610258 0.0022303942 0.05124916 0.048500028 0.10109271 0.004073696 -0.04205638 -0.028071878 -0.06284746 -0.058625977 -0.16133511 -0.045278642 -0.00054756616 0.09738056 -0.035223033 -0.05077854 0.072539896 -0.04415397 0.12907882 -0.012629048 0.17489775 0.04676576 -0.20202881 -0.44997102 -0.16614243 0.06021892 0.03548064 0.08771493 -0.10130294 -0.23132266 0.08610312 -0.028885212 -0.23766392 0.16479014 -0.035186548 0.08567693 0.06942613 -0.19548155 -0.2974718 -0.043422464 0.07713168 0.06337139 0.16480109 0.17736572 -0.08068749 0.17380519 0.027646542 -0.2420826 0.081280075 -0.036638085 -0.14896116 0.18996206 -0.30753615 0.059147358 -0.051836934 0.075008616 -0.265232 -0.21053036 -0.093554944 0.23119697 -0.027215766 0.12195345 0.22155134 0.07374991 0.08906833 0.033760693 0.09939237 -0.13808875 -0.23794417 -0.06787284 -0.0027817003 -0.15795894 0.24330743 -0.31696638 -0.16916065 0.32867858 -0.32960662 0.07064117 0.37182605 -0.033440806 -0.20387729 0.08798685 0.021066075 0.19441244 0.09481838 -0.22253728 -0.08680118 0.16151889
108 -0.051798277 -0.21282202 -0.069874555 -0.12197102 0.1037847 0.12551986 0.062164407 -0.079176344 -0.26850414 0.13675028 0.0055107493 -0.14244542 -0.06708625 -0.025257863 0.15200317 0.0157589 0.13150738 -0.03596479 0.24228773 0.07598715 0.055512354 -0.117296085 0.23417793 0.3243843 -0.058421027 -0.009152007 0.24052969 -0.09740663 0.11313984 -0.12942539 0.039285935 -0.028092608 0.13799402 0.19659315 -0.05082747 -0.060120933 0.1690147 0.02501985 -0.07059135 -0.1569337 -0.08796087 0.16746835 -0.11368832 -0.044095967 0.15291035 -0.10053964 -0.035171922 0.19753732 -0.048669476 -0.08912661 -0.26446772 -0.024261802 -0.30844247 -0.119320914 -0.06411043 0.07010347 0.18527374 -0.2528082 -0.07671657 0.21402079 -0.24625428 -0.10986172 -0.10530313 0.13724709 -0.16456409 -0.08821932 0.0685581 -0.016241191 0.2493371 -0.22486183 0.08760374 0.08322336 0.11562682 0.05053167 -0.065324664 -0.16528876 0.119013324 -0.06024519 -0.19562188 -0.0738362 -0.06007148 -0.22823416 -0.16724919 0.14561257 0.05713295 -0.04464166 -0.059868705 -0.060661845 0.21110305 -0.11445449 -0.18098374 0.19891883 -0.2170282 -0.27213818 -0.35517532 -0.23690411 -0.31122047 -0.17528786 -0.23938441 -0.10557711 -0.041607574 0.01995357 -0.2188171 0.2082152 -0.09122515 0.044656757 0.15689768 -0.07130099 0.2676354 -0.14527617 -0.04384782 -0.017398275 0.22893853 -0.12617207 -0.3186958 0.12618591 -0.23331231 0.062325414 0.07694266 0.116644055 -0.31626433 0.19085985 0.0142612485 -0.07565363 0.024499612 0.023666363 -0.23860127 0.12834866
23 0.12622793 0.20504639 -0.070867926 -0.2309784 0.1883159 0.13970836 -0.03785174 -0.14768533 -0.07166975 -0.11273298 0.06697725 0.11816127 -0.008651661 -0.05734398 -0.04170511 -0.09533354 -0.11284206 -0.2388421 -0.011901265 0.08783585 0.17554644 -0.053335767 -0.31684738 -0.03154127 -0.14299965 0.0070155123 -0.05303461 -0.023921477 -0.15962589 0.19390473 0.117114976 0.091845 -0.05434699 0.10095664 -0.0054203877 0.29245257 0.15460183 0.31094024 0.039662194 -0.13920428 -0.14162603 0.23991346 0.011036895 0.10559955 -0.10839774 -0.059181653 0.15593958 0.367561 -0.16857661 0.14488512 -0.30413905 0.047451086 -0.37150213 0.19095306 -0.11892521 -0.1013431 -0.035340223 -0.006422633 -0.008138042 0.20781924 -0.17471904 -0.21557666 -0.17287526 -0.32952946 -0.15894708 -0.0036151805 0.09904212 -0.07922172 0.1906774 -0.3784976 0.39137 -0.0012501843 -0.036428794 0.18412277 0.06883365 -0.105764896 0.25028914 -0.14570172 -0.076046936 0.087500766 0.103889555 0.10704997 -0.056146204 -0.33111987 0.045394525 -0.006184079 -0.19796588 -0.19525358 -0.08174347 0.015391246 -0.43186316 0.29064405 -0.0072661177 -0.14284927 -0.092939645 -0.0543964 -0.29557848 0.04917635 -0.04711363 -0.068916455 0.24464248 0.035983216 -0.13798957 0.2153513 0.2179245 0.17234777 -0.11766559 0.027559046 0.09484116 0.12569168 0.1576475 0.03053809 0.30508497 -0.26131412 -0.020344228 0.04757948 -0.24196811 0.08758485 0.07556819 0.036505833 0.0057287896 0.37338212 -0.13964026 -0.16259837 -0.16227657 -0.13889581 -0.47616535 0.10597554
95 0.09565561 -0.057890564 -0.21775258 0.09839089 -0.05560969 0.1128857 0.06640983 -0.22293676 0.061015133 -0.1073054 0.06030852 -0.047660306 -0.1519264 -0.20881608 -0.24180941 -0.061432704 -0.041617848 0.1705735 0.029633613 0.04587065 -0.2120594 -0.04139363 0.19222485 0.10590864 0.042813547 -0.029319724 0.22444174 -0.09816093 0.019993035 0.10088419 0.13634372 -0.06741166 -0.043543976 0.2740564 -0.28545493 0.11635132 -0.1860463 0.07748247 -0.14859308 -0.15182087 -0.33781096 -0.06672754 -0.016225649 -0.018535374 -0.12340174 0.033666793 0.22057827 0.23568632 -0.07005947 -0.18502633 -0.22592182 -0.0349231 -0.11830165 0.0046081 -0.22143283 -0.10985199 0.18056913 -0.31833148 0.2127346 -0.07069779 -0.14257395 0.17286764 0.047924343 -0.20247309 0.13146843 0.08297466 -0.1700005 -0.014517193 -0.012371418 -0.06452953 -0.01117555 -0.1376745 -0.24484201 0.026708577 0.13623215 0.1528977 0.092462026 -0.12593007 -0.13706085 -0.23843718 0.07872384 0.11521251 0.19941488 -0.03332612 -0.12795834 -0.11987084 -0.013116043 0.15147659 0.030625204 -0.11239802 0.10268081 0.28944355 -0.10621756 -0.107919306 -0.072390586 -0.08470426 -0.18641426 -0.26555118 -0.12057103 0.05156003 -0.024902252 0.20593435 0.03989819 -0.050064698 0.018401327 0.073097 0.07270033 -0.0013532784 -0.20287432 0.037275374 0.07705328 -0.16782057 0.13604926 -0.30016357 0.09010184 0.14867857 -0.24760702 0.053371668 0.37980586 -0.11433043 -0.11964587 -0.047761373 -0.019084666 0.2087319 0.06004528 -0.29711545 -0.17811644 0.07020858
79 0.08479062 0.046821978 0.015958115 0.09845128 0.1003821 -0.045255132 -0.13921614 -0.22183855 -0.028125877 0.0037514213 0.049218442 -0.34662473 -0.12017326 0.09445338 0.13067977 -0.23731592 0.17783287 0.04737096 0.30317014 0.11833494 0.04332951 0.15524544 0.13459958 -0.052831385 -0.02137162 -0.14362113 0.18007582 -0.105955906 -0.17883042 0.19478141 0.29189745 0.14640425 0.09293869 0.21724638 0.09725349 -0.09857253 -0.015617937 -0.0037140723 -0.20919707 -0.068887815 -0.09189539 0.064466044 0.15421256 0.051000684 0.10467849 0.14322773 -0.06331577 0.20074975 -0.18179353 -0.20280188 -0.13380025 0.040884383 -0.29134852 -0.09527253 0.09541909 -0.06579727 0.0069914856 -0.2256311 0.09802543 0.06655269 -0.040137816 -0.005184486 -0.092847005 -0.026629424 0.096648745 0.11115858 0.12734348 0.31209645 0.08150275 -0.38225517 -0.20756269 -0.084138215 -0.26102644 -0.005601775 -0.047049247 -0.15627863 0.055061854 -0.18001057 -0.2616956 -0.22534935 0.04576737 -0.024617052 0.11098422 0.22678387 -0.07915511 -0.2743575 0.057384312 -0.18455477 0.10849039 0.048042007 -0.12172969 0.19010001 -0.20685092 -0.0448002 -0.2701247 -0.28218815 -0.060594447 -0.13119197 0.059450936 -0.11105206 -0.06365326 -0.16495799 0.10222828 0.03998693 0.048379 0.1418095 0.16494559 -0.01648682 -0.043650076 -0.052782264 0.073405616 -0.28267097 0.35355985 -0.08375383 -0.057787698 0.24530216 0.03196536 0.066098474 0.31484732 0.06424674 -0.11360708 -0.0388977 -0.1727621 0.08584779 -0.00014568947 -0.13476117 -0.19774519 -0.060836643
65 0.18176901 -0.07701862 -0.14162514 -0.061023854 0.1580613 -0.35115546 -0.025737459 -0.44802913 -0.101153 0.11418558 -0.018565798 -0.22773871 -0.096337825 -0.01727004 0.014172793 -0.038926978 0.17153525 -0.088617705 0.18877643 -0.058510285 0.09451746 -0.1890769 0.15309455 0.19791947 0.023372315 -0.16575684 0.12987593 0.009005835 0.00067803747 -0.027504792 0.11510064 -0.0301101 0.10336651 0.05665728 0.037511766 -0.021188682 0.15541841 0.03668814 -0.07135138 -0.1729177 -0.08725118 0.12406775 -0.22149996 -0.11302054 0.11983404 -0.076365866 0.06226304 0.20536569 -0.1514861 -0.055982705 -0.3135879 0.04564746 -0.22970134 -0.16937035 0.026509738 0.06822448 0.12934847 -0.11804487 0.053796053 0.14533561 -0.09793651 -0.06702225 -0.14073972 0.09747173 -0.15471427 0.005780505 0.08201957 0.10180605 0.053893447 -0.34875512 0.114570245 0.0765744 0.008858348 -0.1020173 -0.2563023 -0.015624663 0.3094411 -0.12177729 -0.32896984 -0.03620954 -0.07404735 -0.20565672 -0.17335385 0.33023643 0.13098645 -0.12904139 -0.16751668 0.03796559 0.015695028 -0.18322434 -0.43129086 0.22825041 -0.23034644 -0.16255783 -0.3082724 -0.09758174 -0.17492244 -0.1419785 -0.21453819 -0.3617967 -0.15173994 0.122398 -0.43271014 0.14056617 -0.16866982 -0.04665107 -0.0065053315 -0.15636188 0.4238539 -0.16267875 -0.10228082 0.00759838 0.14102858 -0.163847 -0.40938395 0.123796135 -0.11972245 0.17268813 0.058125243 0.13576683 -0.23933001 0.119116254 -0.088819146 -0.08934209 -0.27831048 -0.1384109 -0.33851165 0.067780875
120 0.086445026 0.013358702 -0.31370023 0.051797464 -0.040044103 0.050158434 -0.026294572 -0.062469307 0.10418811 -0.09919301 -0.051838655 0.017735083 -0.09708262 -0.14332576 -0.15207651 -0.186469 0.034343526 0.078273416 0.0774139 -0.05266243 -0.12328081 0.16364692 0.35587135 0.12371729 0.07448077 -0.073564656 0.12503183 -0.05740458 -0.016280023 0.09542743 -0.053312257 -0.04548246 -0.08137708 0.19994609 -0.21166028 0.10585681 -0.23397669 0.029914454 0.03016603 -0.023628954 -0.18218443 0.0633621 0.1017912 0.033839945 -0.069503106 0.04007599 0.06256205 0.07277435 -0.09729843 -0.17349993 0.051126294 -0.10438623 0.00031971582 -0.0030472553 -0.019969374 0.058209915 0.124446504 -0.14125606 0.21210593 0.06342553 0.06775937 0.15823828 -0.060863964 -0.27265215 -0.014670872 0.057174113 -0.045413706 0.09575442 -0.03553448 -0.24424383 0.12202317 0.065097205 -0.3432227 0.16339575 -0.020321649 0.1272804 0.20294842 -0.10579804 -0.26115716 -0.13830525 0.08995413 0.062163897 0.23421101 -0.008321044 0.0034563472 0.008784017 0.012933303 -0.10728611 0.011350349 -0.048523474 -0.03283343 0.2928756 -0.2220196 0.01985379 -0.0905817 0.08689374 -0.3381625 -0.24068539 -0.16359547 0.018130641 0.068932824 0.11424672 0.20325294 0.07170353 0.24963589 0.07329902 0.09867905 -0.100155674 -0.3628304 0.016707942 -0.0074108415 -0.2500688 0.34754086 -0.32666323 -0.08176346 0.21822119 -0.48153082 0.10058667 0.27070487 -0.100747705 -0.1417667 0.10844296 -0.023660896 0.2082632 0.043347485 -0.24648407 -0.12678646 0.10031058
